{
  "pso_type": "gbest",
  "pso_runs": 9,
  "min_best_fitness": 2.082055411994826,
  "mean_best_fitness": 2.7441294924405257,
  "max_best_fitness": 3.588116816750733,
  "averages": [
    14.412101557783627, 14.34239350712211, 13.650148568033766,
    13.066355392599647, 12.668905415657209, 12.414886251804115,
    12.189090753981851, 11.827902564143121, 11.512913503820778,
    11.237138557486649, 10.927596318888064, 10.423519101525326,
    10.044592379223012, 9.389159010210552, 8.948898947599925, 8.498425887126842,
    8.040425781023874, 7.788199441177541, 7.512168787314721, 7.337680856055027,
    7.1546577507652716, 6.86764766222684, 6.593391880242529, 6.3496816671465295,
    6.129443894989999, 5.990637855853277, 5.914307526372106, 5.887992831597512,
    5.868342757459342, 5.84605601398459, 5.782951730687903, 5.719080327008351,
    5.594046660174936, 5.520786201399574, 5.490100541799022, 5.473754273517895,
    5.438179360454578, 5.391472113112299, 5.3004530303348085, 5.241241060264268,
    5.208625822896086, 5.187255095510718, 5.141490830795263, 5.092961653091298,
    5.059418476688111, 5.024791493511604, 4.9604620152352235, 4.901500727781403,
    4.878883734980679, 4.865051331497103, 4.845668653875981, 4.821626339691056,
    4.79270883392928, 4.777034956858034, 4.7682288498112015, 4.754101720806093,
    4.743632091967118, 4.737171352085402, 4.733055815798591, 4.730404486024508,
    4.692021226248924, 4.668132507284572, 4.65301316521528, 4.639549809868235,
    4.624618637478538, 4.598862295449804, 4.5692347249269325, 4.553006740891498,
    4.529572810764541, 4.5142802464376794, 4.498300534558047, 4.486194813911345,
    4.4754848702165635, 4.450806494984014, 4.441087657571671, 4.437145329380292,
    4.422393506966845, 4.404040072776714, 4.391147010592843, 4.375634418636507,
    4.362873933981159, 4.34566705477414, 4.332564067292852, 4.31973389987078,
    4.299701974342738, 4.283128222920401, 4.2695362093492895, 4.258576995285741,
    4.242581225518461, 4.223125324613773, 4.205992822873666, 4.188577639030317,
    4.171631957158926, 4.156861824655618, 4.142585062181933, 4.124141825007062,
    4.102703466561541, 4.084981338137997, 4.066872699874004, 4.048954445063236,
    3.977060087673946, 3.9601852302221365, 3.9371115946062036,
    3.9184457294137385, 3.9049259999640404, 3.8696600173104594,
    3.848749968904251, 3.8341748547263297, 3.8088181349985226,
    3.7866694624889963, 3.766810407907604, 3.746032028008864,
    3.7240750100933186, 3.707285641096645, 3.690995951149226, 3.675106802225119,
    3.654688414213859, 3.636401235716164, 3.6196819867272634, 3.601969894148107,
    3.5749968245102104, 3.556869880438006, 3.5362893350362983,
    3.522835703659132, 3.5048218260411854, 3.4886715009852676,
    3.4706834569742537, 3.4523098453879393, 3.435105603938847,
    3.423028684601738, 3.410086980540444, 3.3973069288432516,
    3.3814085534954708, 3.370932872057872, 3.3551633022290273,
    3.3453085618114287, 3.334144329837105, 3.320328227286294,
    3.3089094907732517, 3.2978638084296685, 3.286000103469218,
    3.2729684122711302, 3.2600637551491918, 3.2480092200115274, 3.2365842102415,
    3.2267757214661614, 3.2194408369628222, 3.212640659853469,
    3.2061432062341138, 3.2004918377148086, 3.192132574352893,
    3.184419534747325, 3.1734980259760603, 3.1642585638059635,
    3.149442171884237, 3.1354186655074834, 3.123523027750771, 3.113302671330876,
    3.102152759667649, 3.0890538512969474, 3.0739840617067653,
    3.0606896387295026, 3.046418732325846, 3.031436677259527,
    3.0142019263291417, 2.9996338917643213, 2.9885739960303597,
    2.9792368962525995, 2.971046864208048, 2.9612421530137265,
    2.9511661138270835, 2.942095850378527, 2.933249626603844,
    2.9260264136678344, 2.917955364728162, 2.910706035553592, 2.903719518731189,
    2.894729805936682, 2.887135612917628, 2.879874701109289, 2.8726844124615694,
    2.861971665435842, 2.854348130136903, 2.848921185949039, 2.8420181428385716,
    2.8329332775086353, 2.8236045143997464, 2.8174567165652005,
    2.8088511473504707, 2.8015663148507364, 2.794761133661523,
    2.790204264568347, 2.784132005119287, 2.7784298929582487,
    2.7710722901548013, 2.7656433112837604, 2.7597001621466313,
    2.7544056283774045, 2.7493564650000275, 2.7441294924405253
  ],
  "position_bounds": [
    [-4.0, 4.0],
    [-4.0, 4.0],
    [-4.0, 4.0],
    [-4.0, 4.0],
    [-4.0, 4.0],
    [-4.0, 4.0],
    [-4.0, 4.0],
    [-4.0, 4.0],
    [-4.0, 4.0],
    [-4.0, 4.0],
    [-4.0, 4.0],
    [-4.0, 4.0],
    [-4.0, 4.0],
    [-4.0, 4.0],
    [-4.0, 4.0],
    [-4.0, 4.0],
    [-4.0, 4.0],
    [-4.0, 4.0],
    [-4.0, 4.0],
    [-4.0, 4.0],
    [-4.0, 4.0],
    [-4.0, 4.0],
    [-4.0, 4.0],
    [-4.0, 4.0],
    [-4.0, 4.0],
    [-4.0, 4.0],
    [-4.0, 4.0],
    [-4.0, 4.0],
    [-4.0, 4.0],
    [-4.0, 4.0],
    [-4.0, 4.0],
    [-4.0, 4.0],
    [-4.0, 4.0],
    [-4.0, 4.0],
    [-4.0, 4.0],
    [-4.0, 4.0],
    [-4.0, 4.0],
    [-4.0, 4.0],
    [-4.0, 4.0],
    [-4.0, 4.0],
    [-4.0, 4.0],
    [-4.0, 4.0],
    [-4.0, 4.0],
    [-4.0, 4.0],
    [-4.0, 4.0],
    [-4.0, 4.0],
    [-4.0, 4.0],
    [-4.0, 4.0],
    [-4.0, 4.0],
    [-4.0, 4.0],
    [-4.0, 4.0],
    [-4.0, 4.0],
    [-4.0, 4.0],
    [-4.0, 4.0],
    [-4.0, 4.0],
    [-4.0, 4.0],
    [-4.0, 4.0],
    [-4.0, 4.0],
    [-4.0, 4.0],
    [-4.0, 4.0],
    [-4.0, 4.0],
    [-4.0, 4.0],
    [-4.0, 4.0],
    [-4.0, 4.0],
    [-4.0, 4.0],
    [-4.0, 4.0],
    [-4.0, 4.0],
    [-4.0, 4.0],
    [-4.0, 4.0],
    [-4.0, 4.0],
    [-4.0, 4.0],
    [-4.0, 4.0],
    [-4.0, 4.0],
    [-4.0, 4.0],
    [-4.0, 4.0],
    [-4.0, 4.0],
    [-4.0, 4.0],
    [-4.0, 4.0],
    [-4.0, 4.0],
    [-4.0, 4.0],
    [-4.0, 4.0],
    [-4.0, 4.0],
    [-4.0, 4.0],
    [-4.0, 4.0],
    [-4.0, 4.0],
    [-4.0, 4.0],
    [-4.0, 4.0],
    [-4.0, 4.0],
    [-4.0, 4.0],
    [-4.0, 4.0],
    [-4.0, 4.0],
    [-4.0, 4.0],
    [-4.0, 4.0],
    [-4.0, 4.0],
    [-4.0, 4.0],
    [-4.0, 4.0],
    [-4.0, 4.0],
    [-4.0, 4.0],
    [-4.0, 4.0],
    [-4.0, 4.0],
    [-4.0, 4.0],
    [-4.0, 4.0],
    [-4.0, 4.0],
    [-4.0, 4.0],
    [-4.0, 4.0],
    [-4.0, 4.0],
    [-4.0, 4.0],
    [-4.0, 4.0],
    [-4.0, 4.0],
    [-4.0, 4.0],
    [-4.0, 4.0],
    [-4.0, 4.0],
    [-4.0, 4.0],
    [-4.0, 4.0],
    [-4.0, 4.0],
    [-4.0, 4.0],
    [-4.0, 4.0],
    [-4.0, 4.0],
    [-4.0, 4.0],
    [-4.0, 4.0],
    [-4.0, 4.0],
    [-4.0, 4.0],
    [-4.0, 4.0],
    [-4.0, 4.0],
    [-4.0, 4.0],
    [-4.0, 4.0],
    [-4.0, 4.0],
    [-4.0, 4.0],
    [-4.0, 4.0],
    [-4.0, 4.0],
    [-4.0, 4.0],
    [-4.0, 4.0],
    [-4.0, 4.0],
    [-4.0, 4.0],
    [-4.0, 4.0],
    [-4.0, 4.0],
    [-4.0, 4.0],
    [-4.0, 4.0],
    [-4.0, 4.0],
    [-4.0, 4.0]
  ],
  "velocity_bounds": [
    [-0.06481016273420334, 0.06481016273420334],
    [-0.06481016273420334, 0.06481016273420334],
    [-0.06481016273420334, 0.06481016273420334],
    [-0.06481016273420334, 0.06481016273420334],
    [-0.06481016273420334, 0.06481016273420334],
    [-0.06481016273420334, 0.06481016273420334],
    [-0.06481016273420334, 0.06481016273420334],
    [-0.06481016273420334, 0.06481016273420334],
    [-0.06481016273420334, 0.06481016273420334],
    [-0.06481016273420334, 0.06481016273420334],
    [-0.06481016273420334, 0.06481016273420334],
    [-0.06481016273420334, 0.06481016273420334],
    [-0.06481016273420334, 0.06481016273420334],
    [-0.06481016273420334, 0.06481016273420334],
    [-0.06481016273420334, 0.06481016273420334],
    [-0.06481016273420334, 0.06481016273420334],
    [-0.06481016273420334, 0.06481016273420334],
    [-0.06481016273420334, 0.06481016273420334],
    [-0.06481016273420334, 0.06481016273420334],
    [-0.06481016273420334, 0.06481016273420334],
    [-0.06481016273420334, 0.06481016273420334],
    [-0.06481016273420334, 0.06481016273420334],
    [-0.06481016273420334, 0.06481016273420334],
    [-0.06481016273420334, 0.06481016273420334],
    [-0.06481016273420334, 0.06481016273420334],
    [-0.06481016273420334, 0.06481016273420334],
    [-0.06481016273420334, 0.06481016273420334],
    [-0.06481016273420334, 0.06481016273420334],
    [-0.06481016273420334, 0.06481016273420334],
    [-0.06481016273420334, 0.06481016273420334],
    [-0.06481016273420334, 0.06481016273420334],
    [-0.06481016273420334, 0.06481016273420334],
    [-0.06481016273420334, 0.06481016273420334],
    [-0.06481016273420334, 0.06481016273420334],
    [-0.06481016273420334, 0.06481016273420334],
    [-0.06481016273420334, 0.06481016273420334],
    [-0.06481016273420334, 0.06481016273420334],
    [-0.06481016273420334, 0.06481016273420334],
    [-0.06481016273420334, 0.06481016273420334],
    [-0.06481016273420334, 0.06481016273420334],
    [-0.06481016273420334, 0.06481016273420334],
    [-0.06481016273420334, 0.06481016273420334],
    [-0.06481016273420334, 0.06481016273420334],
    [-0.06481016273420334, 0.06481016273420334],
    [-0.06481016273420334, 0.06481016273420334],
    [-0.06481016273420334, 0.06481016273420334],
    [-0.06481016273420334, 0.06481016273420334],
    [-0.06481016273420334, 0.06481016273420334],
    [-0.06481016273420334, 0.06481016273420334],
    [-0.06481016273420334, 0.06481016273420334],
    [-0.06481016273420334, 0.06481016273420334],
    [-0.06481016273420334, 0.06481016273420334],
    [-0.06481016273420334, 0.06481016273420334],
    [-0.06481016273420334, 0.06481016273420334],
    [-0.06481016273420334, 0.06481016273420334],
    [-0.06481016273420334, 0.06481016273420334],
    [-0.06481016273420334, 0.06481016273420334],
    [-0.06481016273420334, 0.06481016273420334],
    [-0.06481016273420334, 0.06481016273420334],
    [-0.06481016273420334, 0.06481016273420334],
    [-0.06481016273420334, 0.06481016273420334],
    [-0.06481016273420334, 0.06481016273420334],
    [-0.06481016273420334, 0.06481016273420334],
    [-0.06481016273420334, 0.06481016273420334],
    [-0.06481016273420334, 0.06481016273420334],
    [-0.06481016273420334, 0.06481016273420334],
    [-0.06481016273420334, 0.06481016273420334],
    [-0.06481016273420334, 0.06481016273420334],
    [-0.06481016273420334, 0.06481016273420334],
    [-0.06481016273420334, 0.06481016273420334],
    [-0.06481016273420334, 0.06481016273420334],
    [-0.06481016273420334, 0.06481016273420334],
    [-0.06481016273420334, 0.06481016273420334],
    [-0.06481016273420334, 0.06481016273420334],
    [-0.06481016273420334, 0.06481016273420334],
    [-0.06481016273420334, 0.06481016273420334],
    [-0.06481016273420334, 0.06481016273420334],
    [-0.06481016273420334, 0.06481016273420334],
    [-0.06481016273420334, 0.06481016273420334],
    [-0.06481016273420334, 0.06481016273420334],
    [-0.06481016273420334, 0.06481016273420334],
    [-0.06481016273420334, 0.06481016273420334],
    [-0.06481016273420334, 0.06481016273420334],
    [-0.06481016273420334, 0.06481016273420334],
    [-0.06481016273420334, 0.06481016273420334],
    [-0.06481016273420334, 0.06481016273420334],
    [-0.06481016273420334, 0.06481016273420334],
    [-0.06481016273420334, 0.06481016273420334],
    [-0.06481016273420334, 0.06481016273420334],
    [-0.06481016273420334, 0.06481016273420334],
    [-0.06481016273420334, 0.06481016273420334],
    [-0.06481016273420334, 0.06481016273420334],
    [-0.06481016273420334, 0.06481016273420334],
    [-0.06481016273420334, 0.06481016273420334],
    [-0.06481016273420334, 0.06481016273420334],
    [-0.06481016273420334, 0.06481016273420334],
    [-0.06481016273420334, 0.06481016273420334],
    [-0.06481016273420334, 0.06481016273420334],
    [-0.06481016273420334, 0.06481016273420334],
    [-0.06481016273420334, 0.06481016273420334],
    [-0.06481016273420334, 0.06481016273420334],
    [-0.06481016273420334, 0.06481016273420334],
    [-0.06481016273420334, 0.06481016273420334],
    [-0.06481016273420334, 0.06481016273420334],
    [-0.06481016273420334, 0.06481016273420334],
    [-0.06481016273420334, 0.06481016273420334],
    [-0.06481016273420334, 0.06481016273420334],
    [-0.06481016273420334, 0.06481016273420334],
    [-0.06481016273420334, 0.06481016273420334],
    [-0.06481016273420334, 0.06481016273420334],
    [-0.06481016273420334, 0.06481016273420334],
    [-0.06481016273420334, 0.06481016273420334],
    [-0.06481016273420334, 0.06481016273420334],
    [-0.06481016273420334, 0.06481016273420334],
    [-0.06481016273420334, 0.06481016273420334],
    [-0.06481016273420334, 0.06481016273420334],
    [-0.06481016273420334, 0.06481016273420334],
    [-0.06481016273420334, 0.06481016273420334],
    [-0.06481016273420334, 0.06481016273420334],
    [-0.06481016273420334, 0.06481016273420334],
    [-0.06481016273420334, 0.06481016273420334],
    [-0.06481016273420334, 0.06481016273420334],
    [-0.06481016273420334, 0.06481016273420334],
    [-0.06481016273420334, 0.06481016273420334],
    [-0.06481016273420334, 0.06481016273420334],
    [-0.06481016273420334, 0.06481016273420334],
    [-0.06481016273420334, 0.06481016273420334],
    [-0.06481016273420334, 0.06481016273420334],
    [-0.06481016273420334, 0.06481016273420334],
    [-0.06481016273420334, 0.06481016273420334],
    [-0.06481016273420334, 0.06481016273420334],
    [-0.06481016273420334, 0.06481016273420334],
    [-0.06481016273420334, 0.06481016273420334],
    [-0.06481016273420334, 0.06481016273420334],
    [-0.06481016273420334, 0.06481016273420334],
    [-0.06481016273420334, 0.06481016273420334],
    [-0.06481016273420334, 0.06481016273420334],
    [-0.06481016273420334, 0.06481016273420334],
    [-0.06481016273420334, 0.06481016273420334],
    [-0.06481016273420334, 0.06481016273420334]
  ],
  "fitness_threshold": 0.1,
  "num_particles": 30,
  "c1": 1.534115183814709,
  "c2": 1.5607091290113804,
  "w": 0.7066324215425293,
  "iterations": 200,
  "elapsed_time": 750.9287812709808,
  "best_weights": [
    1.2890233771555595, 0.929487374527847, 2.791252048258526,
    -0.716201226011688, 1.1992382153733392, 1.2044228194512434,
    -0.5169737202095362, -0.15441088999765737, 1.2385925554000123,
    1.5018606383494055, -2.253835985303387, 0.47794715439485835,
    -0.13937999047460561, -0.10476095144976526, 1.57158456720936,
    -0.2975608189701284, 0.19688343040005227, -0.8247791240692984,
    1.083018631684501, -1.012693021821684, 0.7258829249676488,
    0.24907329707363404, 1.7276796846897196, -1.0041698296263577,
    -0.19078067972737803, -0.17077236227600268, -0.8789848788093649,
    1.8337795534302712, -0.08008344960616098, -1.3696771581842881,
    0.17609476940082164, 0.6200573717753517, -2.2398888065970888,
    1.7721254595769262, 3.111870062624271, -0.33833537606996117,
    2.4532459346065885, -2.5784402576273258, 0.13323199318440865,
    -0.7011179232572234, -0.3804824743281871, 1.4520491008719587,
    1.0067342961790329, -2.086219036898211, -0.9831069452870366,
    0.41327561003006524, -1.8667468275061398, 1.6643975151902257,
    -0.6537950231693503, -2.587129249974944, -0.5183634404120527,
    -0.9385099121017864, -0.3006908934065192, -1.255855576742409,
    1.699355441563078, -0.4528821287044085, -0.4502906194430399,
    0.7122979036467966, 2.2078869176219045, 0.5421672705556547,
    0.06441980422101198, -0.2892393548706561, -0.6031753810525249,
    0.5075324563647134, 1.73594612841108, -0.282212714163211,
    -0.3870156080815703, -1.2793340083682465, -1.5476757219476516,
    -1.5828610576819586, 0.3706003447886963, -1.9375125756761595,
    -1.1464162352142968, 1.9541802921250506, -0.8586455923625751,
    -1.0792424488544652, -0.905158381715955, -1.3196783199873472,
    -0.28202249230832704, 0.1513024255483859, -0.16142906090175,
    1.4872328630416383, 1.1872704889157004, -0.9741725366636006,
    -0.5662406260422727, -1.853446344380483, 2.3859358129892256,
    -1.9206246869379764, 1.6688214550687162, -1.086898061661325,
    -1.790023503745924, -2.537119358890932, 0.8097589028800803,
    0.6989910182834915, -1.4227506200893323, -0.7137923985211633,
    -1.401285054820315, -1.6619259253451373, 0.07606215016245266,
    -0.2153983953614399, 1.0588441852010266, 1.84195989149884,
    -2.185496470115005, -0.7999238755881629, 0.34536514704320526,
    0.9640897964652213, -0.5956702148085192, -0.5783738264435567,
    -0.7515619195668647, -1.7447743718524131, -1.8610431703566555,
    0.7159700249365338, -1.784969320385417, -0.28363046303419687,
    1.3747970189617207, -1.6438504164842298, 0.9059969210207568,
    -0.7875896390856687, 0.15948921996541682, 1.21208540396741,
    0.1854253683768721, -1.634130005541819, -1.7936175137248551,
    0.8170232795350725, 0.45300787000497295, -0.7752764195104005,
    0.8090163874371772, -0.65823228344673, 0.8450878122209758,
    -1.360523902327707, 1.381120347119548, -0.07970757709108253,
    2.1081277312779587, -2.2686550743397125, -1.3525936325335395,
    1.5917344897146726, -0.5892655932489881, 0.7847761121670198,
    0.3811313312261371, 0.43343290672654994
  ],
  "fitness_histories": [
    [
      10.263076628493243, 10.263076628493243, 10.263076628493243,
      10.263076628493243, 10.263076628493243, 10.263076628493243,
      10.263076628493243, 10.263076628493243, 10.263076628493243,
      10.263076628493243, 10.263076628493243, 10.263076628493243,
      10.263076628493243, 10.263076628493243, 10.263076628493243,
      10.263076628493243, 10.263076628493243, 10.263076628493243,
      9.009373763630466, 8.040018601277408, 7.512739170729415,
      7.230842271551405, 7.061757816713489, 6.985762695091275, 6.94408921753135,
      6.919314080791016, 6.90459577676899, 6.896747386393005, 6.892801161735671,
      6.890043688277106, 6.888109781788237, 6.886751708213109,
      6.885795855985894, 6.885121887945429, 6.884647051283889,
      6.884311820150257, 6.884074655042693, 6.883907858799917,
      6.883789547387024, 6.883706146316669, 6.883647681840991,
      6.883605842029868, 6.883576470884709, 6.729539166071873,
      6.622018683091206, 6.556455898779212, 6.092197944375825,
      5.707087062847378, 5.637786742909003, 5.599422540864165, 5.48112334884768,
      5.360251663619803, 5.307423937805498, 5.287144909201332,
      5.2801115174510045, 5.2801115174510045, 5.2801115174510045,
      5.2801115174510045, 5.2801115174510045, 5.2801115174510045,
      4.950218334584707, 4.745782284661635, 4.669713161244573,
      4.656788225237114, 4.656788225237114, 4.656788225237114,
      4.656788225237114, 4.656788225237114, 4.656788225237114,
      4.656788225237114, 4.656649988390783, 4.656649988390783,
      4.656582404439017, 4.579373863098245, 4.543489329588652,
      4.543489329588652, 4.543489329588652, 4.4237677631091605,
      4.4184034759314414, 4.410857693054595, 4.371376935224696,
      4.325692825832864, 4.299342109564351, 4.270517526751186,
      4.2160158692989596, 4.1885816401266265, 4.154191044946662,
      4.114306837360714, 4.0827820593906825, 4.059698224432688,
      4.017255044055488, 3.9782845416444395, 3.9561901648457654,
      3.9300524805656223, 3.913139432384841, 3.9018417509007546,
      3.8821588653021832, 3.872239021387668, 3.8630395703759026,
      3.852471358522644, 3.846470684059302, 3.8416506609028156,
      3.833430012575672, 3.825727062063597, 3.8180570282711037,
      3.8099898532922554, 3.803561128107319, 3.788335797339423,
      3.760862005321558, 3.719266711328339, 3.710672662219094, 3.6818636475056,
      3.657829791080714, 3.640272655545717, 3.626980207811513,
      3.610737200884343, 3.5898643385137974, 3.5777970209519045,
      3.5684363446132314, 3.54974423951284, 3.522960013031367,
      3.516691461508845, 3.4914963825616256, 3.4777100458614916,
      3.461807038410923, 3.446169515229591, 3.4339209217348783,
      3.422413404774998, 3.416491310147657, 3.414411932829122,
      3.4138446101093494, 3.4113666706534946, 3.4058084464200356,
      3.4034017150863827, 3.4001299272283245, 3.394854882443661,
      3.392490418771301, 3.3881296565029655, 3.385142873794395,
      3.3844558213041966, 3.3827902284377993, 3.3809863088173184,
      3.379979592662353, 3.3784755189693754, 3.3779572140845047,
      3.3711449540759295, 3.3701746318633656, 3.367124056826909,
      3.3654814821492414, 3.363519852844052, 3.361120435913714,
      3.3591122546686845, 3.356902876279915, 3.3555592712342475,
      3.3526536992489104, 3.350694094818747, 3.34897355253678,
      3.348002928829393, 3.3459160464756845, 3.3404413413653202,
      3.3383265925425216, 3.336100589955475, 3.331708384855846,
      3.3270747717116396, 3.3209411743982273, 3.3126006201090963,
      3.306282109643671, 3.3015637074155535, 3.2970070473500477,
      3.2922555099002055, 3.2880707103987334, 3.284115657131165,
      3.283250326149774, 3.283002984586179, 3.28101558756243,
      3.2805555789555236, 3.2741401300659985, 3.270237489761396,
      3.2639824783939475, 3.260110534011037, 3.2504787092510594,
      3.2430211477657616, 3.233098907099939, 3.2257123293527403,
      3.219567056302648, 3.2108835925846635, 3.2040768581415797,
      3.193543333768653, 3.1801775430504295, 3.1701338174776366,
      3.1559080939599577, 3.145944370221728, 3.1244907727189966,
      3.112674668401533, 3.0987169871662585, 3.085351815959903,
      3.072087907834728, 3.0631798748587626, 3.061316280870207,
      3.0599702000881064
    ],
    [
      8.913542107947674, 8.913542107947674, 8.913542107947674,
      8.684810084768468, 8.406495952198867, 8.296598210719692,
      8.296598210719692, 8.29096340347217, 8.29096340347217, 8.29096340347217,
      8.29096340347217, 8.29096340347217, 8.29096340347217, 8.29096340347217,
      8.29096340347217, 8.29096340347217, 8.29096340347217, 8.29096340347217,
      8.29096340347217, 8.29096340347217, 7.833978044749375, 7.452113820704064,
      7.181616722152226, 6.877712477601877, 6.57642478445216, 6.57642478445216,
      6.57642478445216, 6.57642478445216, 6.57642478445216, 6.484718552646001,
      6.148259743201571, 5.917719286202495, 5.7598573529276065,
      5.652126600711774, 5.5786153113029675, 5.528702661189579,
      5.494336593609991, 5.257058439554353, 4.852048594622192,
      4.639608663630559, 4.523247960258796, 4.456487945153431,
      4.416620698125806, 4.392215969952865, 4.376641101941656,
      4.366441693710703, 4.359605571159389, 4.354967521257312,
      4.351782746964998, 4.349582406531235, 4.348058964670777, 4.34699375146698,
      4.346246674223432, 4.345720900595668, 4.345351548278344,
      4.345090590609198, 4.344906879300743, 4.3447773768170865,
      4.344685625263702, 4.344620871206873, 4.344575433038236,
      4.344542726042993, 4.344520116365432, 4.344503872446781,
      4.344492457764908, 4.344484555275273, 4.325770209203447,
      4.294011163889814, 4.269554703518039, 4.25991674100079, 4.256669141210575,
      4.255992031262044, 4.255992031262044, 4.255992031262044,
      4.255992031262044, 4.255992031262044, 4.255992031262044,
      4.255992031262044, 4.255992031262044, 4.255992031262044,
      4.255990462715534, 4.23893351655674, 4.221619033113029, 4.192445254710563,
      4.152174249098061, 4.119320977189123, 4.109106018778242,
      4.105907529255127, 4.038963803647878, 3.981246378131938,
      3.9448525944428297, 3.9131451595842988, 3.87679790503193,
      3.8619061405465454, 3.8494816666491185, 3.828832195120799,
      3.801683309056771, 3.7916530287500843, 3.7784215263323726,
      3.741772335970402, 3.723305484482025, 3.6922292609321, 3.662061458019848,
      3.6322740381351117, 3.6180015620138106, 3.5882988761337717,
      3.5702998121440994, 3.5423582112453484, 3.521644829825132,
      3.4978149950626403, 3.4698373276015535, 3.446845926558172,
      3.443701404152502, 3.4354331999119307, 3.3953512274705457,
      3.35815265507105, 3.3225024372720497, 3.2805637186888976,
      3.2433991523590553, 3.2038186415494017, 3.12356717640546,
      3.0731200759721014, 3.01472214539792, 2.969262490458473,
      2.9276110805739073, 2.889644642138011, 2.8559195897085163,
      2.818019706364774, 2.7856505652185963, 2.7733273766374196,
      2.76600868451568, 2.7407944664925448, 2.721183038955712,
      2.7099398225528755, 2.692545833640286, 2.6842338764722187,
      2.67171812433514, 2.6477024554973467, 2.6439371498186492,
      2.6218434383052185, 2.6113905745851627, 2.5859230248544547,
      2.570088942061146, 2.5583928386051227, 2.5372500479729467,
      2.514949636846194, 2.504285572379345, 2.491661374991251,
      2.4735492461765336, 2.4663489532340415, 2.4392376110453915,
      2.4227534516045917, 2.4099303005159145, 2.3947728892338667,
      2.3876174258769085, 2.380525886393293, 2.3691859103385244,
      2.3586606592706, 2.347204079140913, 2.3386180386607625,
      2.3280099929975253, 2.318516405374559, 2.3015995351552907,
      2.294671695139974, 2.2858749954741797, 2.2816531726483644,
      2.2738420578753042, 2.265298648875554, 2.2571363657673484,
      2.252339736029852, 2.2508215993636336, 2.246863510251014,
      2.240479353636142, 2.23304612984268, 2.226569353059629,
      2.2219251023450157, 2.2158515157978154, 2.2083459769792704,
      2.204514410306225, 2.19706075433793, 2.192645859602299,
      2.1886319092984583, 2.1847885766299573, 2.1815787693362916,
      2.179424639202991, 2.1766503616859527, 2.1766503616859527,
      2.1741994590328395, 2.1738350346293487, 2.1572451299280164,
      2.1430044940967226, 2.1307398747713036, 2.119780356887027,
      2.113047475805919, 2.1105916223436907, 2.1103883922775366,
      2.106850250469946, 2.100108725140122, 2.0953460986510852,
      2.082055411994826
    ],
    [
      9.67824816528426, 9.67824816528426, 9.67824816528426, 9.67824816528426,
      9.67824816528426, 9.67824816528426, 9.67824816528426, 9.67824816528426,
      9.67824816528426, 9.67824816528426, 9.67824816528426, 9.67824816528426,
      9.67824816528426, 9.67824816528426, 9.67824816528426, 9.67824816528426,
      9.67824816528426, 9.67824816528426, 9.630929284817752, 9.216264396106771,
      8.595173887720728, 8.3021538387226, 7.182826106432213, 6.493992009577697,
      6.098984255411216, 5.859658847291421, 5.641258817023858,
      5.640902948267887, 5.583678998732706, 5.5367061622921145,
      5.481919132742628, 5.435437743132806, 5.396667808703811,
      5.369008828297812, 5.349701718010051, 5.295899067772644,
      5.012754575586022, 4.848228697440494, 4.75039390135361,
      4.6902951871135725, 4.651705168771216, 4.627373782125973,
      4.612205127915255, 4.601615970216715, 4.594520140986187,
      4.5895142002702665, 4.585995311470147, 4.583538305149788,
      4.58181041500815, 4.580598859323328, 4.579753911432603, 4.579161230517358,
      4.578747391300359, 4.578455786097962, 4.578250401572849,
      4.578104793777401, 4.578002511426671, 4.577930016645589,
      4.577878977964539, 4.577842938063315, 4.577817105820819,
      4.577798981499149, 4.577786481925155, 4.538454628980169,
      4.477248427215526, 4.3079843513820855, 4.159308434003172,
      4.110194599528846, 4.1074114267431305, 4.0753014388664495,
      4.018670852854708, 4.018670852854708, 4.016955203592145,
      4.016955203592145, 4.014550209931559, 4.014550209931559,
      4.014429292889267, 4.014429292889267, 4.008074002722967,
      3.9830531900978836, 3.9791750017381755, 3.9642931325639323,
      3.9534817862553675, 3.9468732409499743, 3.9425850382398147,
      3.940254822057089, 3.9388277751830825, 3.9379128133752057,
      3.93559861066336, 3.9219081922851506, 3.9219081922851506,
      3.921793537889649, 3.9203397017835546, 3.9195284567616366,
      3.9162265178562077, 3.911520736067874, 3.909023917432656,
      3.907674422907668, 3.90610900624452, 3.9049004016244058,
      3.901159402711426, 3.8993013147361446, 3.894556716942812,
      3.8905868834807684, 3.886719608786023, 3.8845112881800263,
      3.8834107703700083, 3.8827919911508793, 3.88217446440555,
      3.881187175543272, 3.881117636962126, 3.880207746194202,
      3.879866589681035, 3.8796783016985326, 3.8796783016985326,
      3.8796425357814006, 3.8785839119750194, 3.8768546065489513,
      3.8750988117048157, 3.8730256988515896, 3.8704572321750557,
      3.869042647082589, 3.867326706972075, 3.86457715029706,
      3.8620725771753213, 3.8541200514715137, 3.8322766271145556,
      3.80810631396043, 3.787187564666342, 3.7706761336183026,
      3.7553804581232386, 3.750884015471816, 3.748080334456891,
      3.7464931621176016, 3.743671417685285, 3.743671417685285,
      3.7410895980877563, 3.735795648642732, 3.7294788904744625,
      3.7237832764069982, 3.71794068321284, 3.7127624521702325,
      3.7076463098652788, 3.703415485046582, 3.698476328160474,
      3.697368283869285, 3.693922495162636, 3.689153656081724,
      3.6875849568553507, 3.685568998964796, 3.680836621634877,
      3.679313624475823, 3.679313624475823, 3.6767642969730336,
      3.675581210102106, 3.6739923094708935, 3.6720008341553516,
      3.669115563657026, 3.6657987925769593, 3.6586445849070164,
      3.652833826161252, 3.6446455991740954, 3.634468603527797,
      3.626708844678241, 3.6201021715361628, 3.613414007273989,
      3.6078514417526724, 3.6015781228477586, 3.5919751635926853,
      3.581559977006735, 3.5726523046682375, 3.561146261432195,
      3.5491583780187583, 3.536613779298749, 3.5262871360513666,
      3.516568748111271, 3.508393305419199, 3.496730094409549,
      3.4859579963714165, 3.4768341986967184, 3.467103997179534,
      3.456513550352015, 3.4384142960227684, 3.4244327827280903,
      3.4150777394060188, 3.4092058428261214, 3.405343731350758,
      3.397881122514691, 3.3887772689391973, 3.3819469022818076,
      3.3788166365013277, 3.3773915330029043, 3.376352816121002,
      3.3761063634379314, 3.373908678855193, 3.3736688319898045,
      3.372833545611732, 3.372833545611732, 3.372833545611732, 3.372833545611732
    ],
    [
      30.210090982451025, 30.210090982451025, 30.210090982451025,
      30.210090982451025, 30.210090982451025, 30.210090982451025,
      30.210090982451025, 30.210090982451025, 30.210090982451025,
      30.210090982451025, 30.210090982451025, 27.721314046080252,
      25.72119307009725, 20.65409509727089, 17.53161294326846,
      15.613825105457924, 12.818461003758712, 11.15337943964988,
      10.163006316425042, 10.074034341201882, 10.074034341201882,
      8.462948096172848, 7.640888108167988, 7.387396012298874,
      6.618548436828466, 6.187375462367278, 5.945344260653503,
      5.807937964725485, 5.728341818877125, 5.681041026285058,
      5.652133349844017, 5.633971625438409, 5.622278699645657,
      5.614587089051339, 5.609437224911659, 5.605940678631374,
      5.603541153762865, 5.60188103146597, 5.6007259920097185,
      5.599918480688486, 5.599352370006819, 5.598954321098368,
      5.5986748012935745, 5.598476693188933, 5.598337519330777,
      5.598240248888693, 5.598170574275718, 5.59812168228138, 5.598087099881212,
      5.598062227678079, 5.598045021500286, 5.5980330963955405,
      5.598024408088944, 5.598018615877055, 5.598014356893901,
      5.598010779345548, 5.598009246109839, 5.598007712873711,
      5.598006179637163, 5.59800515747923, 5.59800515747923, 5.59800515747923,
      5.59800515747923, 5.59800515747923, 5.59800515747923, 5.579905506277358,
      5.508565302055674, 5.461272266261347, 5.429560861551511,
      5.408108077724287, 5.393437367879167, 5.383316171498692, 5.35336206627178,
      5.244557602428486, 5.224397995139832, 5.212053765605877,
      5.124351460430349, 5.124351460430349, 5.114051661726122,
      5.114051661726122, 5.114051661726122, 5.112601192004548,
      5.112601192004548, 5.112556237095668, 5.112556237095668,
      5.112556237095668, 5.09320364988378, 5.09320364988378, 5.09320364988378,
      5.09320364988378, 5.09320364988378, 5.087836454546078, 5.079703968764156,
      5.079703968764156, 5.079703968764156, 5.079703968764156,
      5.079703968764156, 5.079230273346321, 5.079230273346321,
      5.079230273346321, 4.6209981977784915, 4.6209981977784915,
      4.617128839781768, 4.617128839781768, 4.617128839781768,
      4.405748704030497, 4.31004529004298, 4.31004529004298, 4.2495561255740935,
      4.2495561255740935, 4.234275450715186, 4.234275450715186,
      4.219548354726023, 4.199674075968319, 4.18699847961646, 4.161090985803924,
      4.0916164749910235, 4.034584972493274, 3.993715475348071,
      3.969325106545524, 3.9187902956507665, 3.8691734069945167,
      3.8360862936152764, 3.827157408209058, 3.799110915928341,
      3.7830327142828124, 3.7704479940945843, 3.762166187775133,
      3.7548995753039356, 3.7489141799575143, 3.7342567584739013,
      3.72621495447631, 3.7051565014196375, 3.6952341728699944,
      3.6578264017016107, 3.6578264017016107, 3.6578264017016107,
      3.6578264017016107, 3.6578264017016107, 3.657786902167413,
      3.6430137557870292, 3.636501481954775, 3.6333461574596435,
      3.6303152381484063, 3.628417541643512, 3.621265592478957,
      3.616819820296249, 3.610448372172093, 3.607651336096907, 3.60423963763212,
      3.6009156810970464, 3.5982609840129474, 3.5865338396863526,
      3.5816290742993893, 3.566383119405755, 3.5523220366130435,
      3.5425155669457857, 3.5323962486457106, 3.511151124696712,
      3.4909205517345923, 3.4677456613221582, 3.4404533877004426,
      3.4181865165003025, 3.397474270822141, 3.3758394115816714,
      3.354173901157199, 3.346017514326062, 3.3366924208931077,
      3.3287032077321066, 3.3104852271177476, 3.301906127667432,
      3.290568607205756, 3.284186511524653, 3.282964204154422,
      3.280386238850175, 3.2801219636059833, 3.278308821798078,
      3.2781546388637177, 3.277380560030543, 3.27648376166495,
      3.2763278919029504, 3.276170413707272, 3.2748519281590713,
      3.274729908296261, 3.2729698702937347, 3.270451096150874, 3.2685985989637,
      3.264663919907948, 3.2606819378044105, 3.2587899404403973,
      3.2563509876018535, 3.254390392028969, 3.2542500217001384,
      3.252552937128877, 3.2506689703633023, 3.248937726645978,
      3.2472694370335047, 3.2459822542618606, 3.2428841083814675,
      3.240508524936033
    ],
    [
      7.5420384043199045, 7.5420384043199045, 7.5420384043199045,
      7.5420384043199045, 7.5420384043199045, 7.5420384043199045,
      7.5420384043199045, 7.5420384043199045, 7.5420384043199045,
      7.5420384043199045, 7.5420384043199045, 7.5420384043199045,
      7.5420384043199045, 7.5420384043199045, 7.402313087420003,
      7.008351112854216, 6.797355126271283, 6.414501105493166,
      6.248115865905441, 6.167282829775314, 6.131654510997527,
      6.121760543212835, 6.0373466393242134, 5.950476350068506,
      5.893675644082922, 5.855760278245627, 5.830051625253845,
      5.812417306619429, 5.8002189594900075, 5.7917283235556685,
      5.785793848853049, 5.624787390187691, 5.509670252686177,
      5.481341879062645, 5.481341879062645, 5.481341879062645,
      5.481314911235071, 5.481314911235071, 5.481314911235071,
      5.481314911235071, 5.481314911235071, 5.481314911235071,
      5.481314911235071, 5.481314911235071, 5.467474739703594,
      5.349357117147112, 5.321802588802919, 5.2396308588358815,
      5.148586612562292, 5.091752485601965, 5.055384969569752,
      5.031669646585818, 5.015932638175366, 5.005333154281697,
      4.998106216370563, 4.92193177205601, 4.8633343919661804,
      4.826991469763534, 4.804079293313685, 4.78984065991378,
      4.7807936107751114, 4.774919295502747, 4.7710630314376665,
      4.768497789345423, 4.766720105029493, 4.765486117981442,
      4.764625119236084, 4.7640332174480315, 4.76362803158637,
      4.763343339877944, 4.763142924328235, 4.763001367005339,
      4.762901253204639, 4.762830972059391, 4.762781514335494,
      4.762746473127155, 4.762721443534784, 4.762703822622856,
      4.762691808327346, 4.746156040614893, 4.730038107462441,
      4.721623638337187, 4.717867737200543, 4.716950938865907, 4.69585315301882,
      4.679338394415202, 4.669155592452794, 4.6454531025065675, 4.6231161869012,
      4.574177885972465, 4.536484424444499, 4.483309416488518,
      4.429824423313718, 4.385090118839269, 4.319009263555331,
      4.242488955751429, 4.172138791548918, 4.101229292640857,
      4.037055514880197, 3.9819856547888075, 3.9299810159627535,
      3.8711410504173784, 3.822510007317506, 3.781900901573346,
      3.759968034324311, 3.759968034324311, 3.7318844969805416,
      3.694823928375253, 3.642168495524676, 3.6044821334694515,
      3.5573468332029727, 3.512769157984566, 3.4603959945131675,
      3.428952635848743, 3.414395732896993, 3.3901016604953975,
      3.3652920444039354, 3.3487032985527816, 3.3351460931855184,
      3.3069235449143934, 3.298323037579778, 3.284870874662809,
      3.2792666299230615, 3.273467944602235, 3.272807859623101,
      3.261823421786058, 3.2515250809224394, 3.2390424434263565,
      3.2329480252959737, 3.2263031271070854, 3.2205947478354298,
      3.2145459024388994, 3.179624514694048, 3.175134346590154,
      3.160261871496656, 3.1371361631708647, 3.1170851611784003,
      3.1005121177235995, 3.090937868025124, 3.0864679194565547,
      3.0780782163521194, 3.0651275884510722, 3.034077063409726,
      3.0119929603200566, 2.986986705146374, 2.968265052137152,
      2.9511384286758764, 2.926094639372078, 2.904219215242387,
      2.885511174128936, 2.8690094940570945, 2.859091489317386,
      2.8450899425696607, 2.834913336826954, 2.812160895355596,
      2.7934854096263266, 2.785363659084463, 2.7807182060769238,
      2.7672641874916866, 2.7498631876812265, 2.7336662027766163,
      2.707489723474896, 2.6906395250519854, 2.671692869883271,
      2.640471414467291, 2.612213783465071, 2.5810560730877383,
      2.549746900975311, 2.5266994498180217, 2.5018155181469357,
      2.4778939407595377, 2.458167754809446, 2.440411418405258,
      2.4314481482871146, 2.417782186234575, 2.400133657707341,
      2.3863057529976226, 2.3737537728310283, 2.3660948595393165,
      2.3594064268330714, 2.352868614059624, 2.343078618845944,
      2.334279061711679, 2.3236017514157044, 2.314269239629407,
      2.299474581537107, 2.289427015425467, 2.289427015425467,
      2.288527807078864, 2.285852779296905, 2.2764312852944806,
      2.266477858402635, 2.2531491599725397, 2.2357443501493757,
      2.2191158584048023, 2.201071356955109, 2.1756189583702987,
      2.154058808135811, 2.1305524428421, 2.1198364802941843
    ],
    [
      11.204504973521148, 11.204504973521148, 10.516298269680021,
      9.851833935718398, 9.305669340383774, 8.895430997256577, 8.18762905805369,
      7.587244583179735, 7.237344153114801, 6.915474233522363,
      6.549944101342613, 6.146310906254878, 5.704667893822443,
      5.461913102175626, 5.329123305600915, 5.25181402928022, 5.207226851868123,
      5.1802449796622945, 5.165032692406027, 5.155958317685089,
      5.149733986511919, 5.145470095438488, 5.142551235153302, 5.14058474261165,
      5.0833788176622665, 4.6423529801843975, 4.456238203849, 4.38265082457205,
      4.358764824498803, 4.355419483675962, 4.355419483675962,
      4.355419483675962, 4.355419483675962, 4.355419483675962,
      4.355419483675962, 4.355272338270355, 4.355272338270355,
      4.355254163716098, 4.355254163716098, 4.355254163716098,
      4.355254163716098, 4.355254163716098, 4.355250879150008,
      4.355250879150008, 4.355250441207675, 4.355250441207675,
      4.355249346351651, 4.355249346351651, 4.355249346351651,
      4.355248908409164, 4.355248908409164, 4.355244966924803,
      4.355244966924803, 4.355244966924803, 4.355244966924803,
      4.355244966924803, 4.355244966924803, 4.355244966924803,
      4.355244966924803, 4.355244966924803, 4.355244966924803,
      4.355244091038905, 4.355244091038905, 4.355244091038905,
      4.3552434341243655, 4.3552434341243655, 4.35524321515283,
      4.35524321515283, 4.35524321515283, 4.355242996181285, 4.355242996181285,
      4.355242777209727, 4.344351527875467, 4.336186692233999,
      4.330987637763127, 4.327371359532341, 4.316276997145673,
      4.306285637651315, 4.294464433916053, 4.282323326835741,
      4.277327028006697, 4.275364972870166, 4.274885361233044,
      4.274885361233044, 4.270445841756798, 4.270445841756798,
      4.270445841756798, 4.270445841756798, 4.270445841756798,
      4.270445841756798, 4.270445841756798, 4.270445841756798,
      4.270025756901194, 4.270025756901194, 4.270025756901194,
      4.270025756901194, 4.269776723773039, 4.266871008350767,
      4.253939878052343, 4.242812642776499, 4.23874610425972, 4.234790288964013,
      4.230220995241159, 4.224973482127742, 4.2178052056209845,
      4.21635267171698, 4.211437301841126, 4.203941974867369, 4.19887852909555,
      4.19601849346613, 4.194307402223946, 4.1895409919398725,
      4.185939441095225, 4.182201620473014, 4.177118670662105,
      4.172712034914267, 4.168957322211268, 4.164490067679801,
      4.160587657355751, 4.1574333628752305, 4.152732565359755,
      4.1459657018542915, 4.140755129514729, 4.135996639346264,
      4.132080936403622, 4.129515979104535, 4.126564191697282, 4.12298210956949,
      4.120098091365144, 4.1160616122454705, 4.1144333952935295,
      4.111627345851317, 4.110881108789281, 4.10959731976446, 4.108308254781838,
      4.1071230443630595, 4.1056492381978105, 4.1023373988982685,
      4.100012495440539, 4.09717166388114, 4.093889539830191, 4.090024927711537,
      4.0877865752106795, 4.083891201187863, 4.080705666570749,
      4.075998270590343, 4.070855336957883, 4.06569745338616, 4.0579693693055,
      4.049454857200279, 4.0355473759951535, 4.010268382844396,
      3.9715871206864075, 3.9369747477587085, 3.88940251152635,
      3.8341696835789083, 3.783558290714364, 3.7345145610444246,
      3.701972234744454, 3.6574161332710857, 3.6180436046075104,
      3.573489188690719, 3.5190974062343643, 3.451254497719956,
      3.3860815872214043, 3.3330319904173598, 3.3029695559099643,
      3.291671913883196, 3.283466716580822, 3.275577983376843,
      3.2579506677834975, 3.24379519392514, 3.231613233208809,
      3.2234122574410025, 3.2124260563634053, 3.2019780780582683,
      3.1861713108479135, 3.1492042081246834, 3.1271263517758126,
      3.102848122836287, 3.0819791105281578, 3.0283570002917126,
      3.0128711519288376, 3.009112505689911, 2.9858203204211473,
      2.945204027035183, 2.900375664155438, 2.8779754169042473,
      2.8391030039440968, 2.820223397408706, 2.8076986231396215,
      2.8073767729947714, 2.8018889424753395, 2.799086649974624,
      2.7772459718470865, 2.7679021049398616, 2.765652155338743,
      2.7601794926701038, 2.752391815415532, 2.7408500518087897
    ],
    [
      17.466787156327666, 16.839414700373997, 14.104026684801257,
      12.233351000808584, 11.138379570237477, 10.48652438148673,
      10.093655517891781, 9.839487079184835, 8.82923544592454,
      7.915422870571774, 7.435723613525336, 7.179721769929773,
      7.037157349180769, 6.950959492049096, 6.90122119214209, 6.038728337092108,
      5.277866521167316, 5.176309303841222, 5.176309303841222,
      5.1688173596422295, 5.1688173596422295, 5.1688173596422295,
      5.1688173596422295, 5.1688173596422295, 5.1688173596422295,
      5.1688173596422295, 5.1688173596422295, 5.1688173596422295,
      5.1688173596422295, 5.168809979424041, 5.168809979424041,
      5.168809979424041, 5.168809979424041, 5.168809979424041,
      5.168809979424041, 5.168809979424041, 5.168809979424041,
      5.152165500198016, 5.090233460713793, 5.028888219137611,
      4.977346409449827, 4.937284054440104, 4.907318582004148,
      4.885204297013542, 4.869262644818375, 4.857923088397766,
      4.849805627447706, 4.844015790968718, 4.839912912830579,
      4.837025755669567, 4.8349896366359415, 4.833548552007548,
      4.832524834898133, 4.8317975640744, 4.831283573167225, 4.830920351534591,
      4.8306629214067405, 4.830480895813009, 4.830352170753791,
      4.830261350396556, 4.830196985370314, 4.830151968829986,
      4.777202214213189, 4.713050684639562, 4.64318078558408, 4.601035640068618,
      4.574718887781159, 4.557943708004402, 4.406759895419639,
      4.332870140751533, 4.332870140751533, 4.332870140751533,
      4.332870140751533, 4.332870140751533, 4.322909852294454,
      4.313126449418885, 4.308555900289893, 4.306367355984333,
      4.305355179475388, 4.304882675149435, 4.304706109589993,
      4.280683271111999, 4.247807329812177, 4.209600402642365,
      4.184618969415191, 4.134283543135263, 4.105550284261134,
      4.091489444372683, 4.085119803830177, 4.082337290411652,
      4.0814394289134865, 4.080480136669207, 4.072604012094848,
      4.063516577661362, 4.052484226090209, 4.044655445263346,
      4.0268556759749705, 4.006943874406838, 3.992296907900273,
      3.9725957545172643, 3.8994914676999923, 3.884275226124894,
      3.8535701943123697, 3.816638264002056, 3.7863704595990364,
      3.759572590417968, 3.738141957142351, 3.715311592558202,
      3.6807284492494494, 3.659860246835552, 3.6339420654431955,
      3.6124914677397078, 3.591271383272981, 3.5826387545434497,
      3.5764358731406745, 3.5756918284441057, 3.574059321282099,
      3.574059321282099, 3.5653519842686663, 3.556889449354821,
      3.5247723066231664, 3.518711481510285, 3.4973505073539686,
      3.4858530784106687, 3.454814514834216, 3.4327742951688895,
      3.3959806133386383, 3.349471998595086, 3.2945892943998976,
      3.255707497535563, 3.201478265014439, 3.1537120926582545,
      3.1094498361754295, 3.074463036027576, 3.0448099033794023,
      3.0201268564826953, 2.992044709386668, 2.9497472428484266,
      2.9184824786226393, 2.8845140351317533, 2.851829871615448,
      2.8073619109491124, 2.770307811339359, 2.734019752313886,
      2.7051768370978455, 2.6887647624654667, 2.677083610406013,
      2.6728987489269738, 2.6691366518611583, 2.6639245856152645,
      2.658236310697057, 2.652857060826037, 2.6486320311634697,
      2.643057701424909, 2.6370764369656436, 2.6268063642496475,
      2.621710760089738, 2.615196358801126, 2.6091049876964534,
      2.60183100417375, 2.5667516281466076, 2.5667516281466076,
      2.5667516281466076, 2.5608170728315156, 2.548159597132506,
      2.542648553099956, 2.536792573832671, 2.529768522024182,
      2.523742657330031, 2.5156862239614064, 2.498570796614697,
      2.486871292943653, 2.4690293745516034, 2.4515252212014396,
      2.432712548468343, 2.419031750732815, 2.409062809886608,
      2.402767882084789, 2.388310627355763, 2.3770514211649494,
      2.365149902044914, 2.355620675066558, 2.344732561782985,
      2.335624444199461, 2.326282155892368, 2.320354936513504,
      2.304442829140506, 2.2967243793952394, 2.286389140571662,
      2.2779504612333006, 2.27287951566391, 2.268019469794881,
      2.266040106267784, 2.255574420584893, 2.2486354080698128,
      2.2429905958450465, 2.237112755537268, 2.233892108514673,
      2.230143027230657, 2.2231123042394287
    ],
    [
      27.96276996125831, 27.96276996125831, 25.15616022887709,
      22.665893691103516, 21.008294057096904, 19.89411285577619,
      18.96262417817366, 16.572118190453487, 15.097368710877651,
      13.851076688815679, 11.910425930654595, 10.522142949444051,
      9.696130857887658, 9.193281158380355, 8.675676162268772,
      7.872970561758033, 7.562778688450331, 7.4692163042522095,
      7.457932814884959, 7.457932814884959, 7.457932814884959,
      7.456867294147677, 7.456867294147677, 6.674537716977226,
      6.313220898849951, 6.238181269255945, 6.238181269255945,
      6.238181269255945, 6.238181269255945, 6.238181269255945,
      6.098264616212198, 5.9809700863512205, 5.926379581588439,
      5.91957840887494, 5.913751591480842, 5.912101954797953, 5.912101954797953,
      5.912030333238558, 5.658908619613566, 5.460943437608539,
      5.3745234078541575, 5.313780506865755, 4.9872156736169835,
      4.7617966580608755, 4.620020686181727, 4.518700420271206,
      4.450090840301856, 4.399655649408715, 4.365497405386418,
      4.342528466464631, 4.327172790885824, 4.31655052254648, 4.309098602349511,
      4.303699968608384, 4.299859803154311, 4.297191261443544,
      4.295390590542073, 4.294124652448007, 4.293230876608348,
      4.292598191184103, 4.292151834168231, 4.291837201233249,
      4.291614766717559, 4.291458322350422, 4.2913467633666045,
      4.291268759246724, 4.29121319989216, 4.2911740856750775,
      4.291146749959444, 4.291126748105974, 4.2223639938467175,
      4.124471225948456, 4.07089399112319, 4.043095418079121, 4.029325277105424,
      4.022422647722288, 4.017638892649328, 4.014519565288964,
      4.012461087522449, 3.9666513015278513, 3.9319292655162856,
      3.8981487037240146, 3.8757252168363148, 3.8665466394101453,
      3.837380070008283, 3.818545691586061, 3.8010730533379022,
      3.7845666384823087, 3.7716585945810563, 3.75970791859124,
      3.7324236635755788, 3.7110490320410605, 3.690459147060903,
      3.654007052535343, 3.637871875958343, 3.612149447951784,
      3.5638827936271174, 3.5244802213501605, 3.4925022196779727,
      3.479429421620249, 3.4609872370949986, 3.4372135389784297,
      3.3779334988866183, 3.3443166662613453, 3.3176705654196375,
      3.2863440798543673, 3.2738149056658745, 3.2538108491135564,
      3.2285504809446315, 3.1575431063285193, 3.1171186625975387,
      3.057794030337919, 2.988116091483743, 2.935273320795431,
      2.8889425794388717, 2.868379350374746, 2.8523506643001992,
      2.8367199199383086, 2.8171219042156608, 2.795508194582696,
      2.7769063398579035, 2.765515169021036, 2.7489687980249338,
      2.7398895459988313, 2.7230636751573, 2.7125293993784982,
      2.7004239032140047, 2.69259506567802, 2.683514500854047,
      2.6762017803667724, 2.672832384413523, 2.6673901490435092,
      2.6649174814528274, 2.6491785503679695, 2.6434754105043536,
      2.6284248171962843, 2.61316310005359, 2.6005574252391646,
      2.5648617909099363, 2.5394389181615464, 2.5144093105356182,
      2.5013790141952197, 2.4846567438021463, 2.459403198545854,
      2.4443199410183722, 2.437303877545392, 2.4262080654036327,
      2.4262080654036327, 2.4252170268995465, 2.421380860155622,
      2.41981201907754, 2.41364094531789, 2.3990148787488277, 2.391588303703294,
      2.3615808343825537, 2.3445624405674774, 2.326373676863955,
      2.320010798198958, 2.3105286108151235, 2.304134393044055,
      2.3029320189579305, 2.3029320189579305, 2.3014378282767267,
      2.3014378282767267, 2.301221303517428, 2.301221303517428,
      2.300735136389272, 2.299800437064809, 2.2987158009742488,
      2.2958869106274333, 2.291448085648818, 2.289248201825072,
      2.284803992614677, 2.282392659833559, 2.2809670677834752,
      2.27941371222744, 2.27941371222744, 2.279024370994669, 2.2766855639915664,
      2.275522540938689, 2.27443272151803, 2.2731787675273063,
      2.272923781829336, 2.2723252764553368, 2.2715844011792536,
      2.2715608906999325, 2.271479651724184, 2.271341832707772,
      2.271053886785461, 2.271053886785461, 2.271037194670135,
      2.2709742044506522, 2.270942918658928, 2.2709124723404135,
      2.2709124723404135, 2.2708509485337305, 2.2703803307625523,
      2.2701407843470007, 2.2699414406167717, 2.269882096240895
    ],
    [
      6.467855640449419, 6.467855640449419, 6.467855640449419,
      6.467855640449419, 6.467855640449419, 6.467855640449419,
      6.467855640449419, 6.467855640449419, 6.467855640449419,
      6.467855640449419, 6.467855640449419, 6.467855640449419,
      6.467855640449419, 6.467855640449419, 6.467855640449419,
      6.467855640449419, 6.467855640449419, 6.467855640449419,
      6.467855640449419, 6.467855640449419, 6.467855640449419,
      6.467855640449419, 6.467855640449419, 6.467855640449419,
      6.467855640449419, 6.467855640449419, 6.467855640449419,
      6.467855640449419, 6.467855640449419, 6.467855640449419,
      6.467855640449419, 6.467855640449419, 5.72154092693684, 5.241081655552222,
      5.069180637039148, 5.031408082362209, 5.031408082362209,
      5.031408082362209, 5.031408082362209, 5.031240332931803,
      5.031240332931803, 5.031240332931803, 5.031240332931803,
      5.031240332931803, 5.031240332931803, 5.031240332931803,
      5.031240332931803, 5.031240332931803, 5.031240332931803,
      5.031240332931803, 5.031240332931803, 4.973183627155175, 4.79113605159747,
      4.687898746061002, 4.627837264487812, 4.580309454112743,
      4.547025802576008, 4.526873560031871, 4.513912734270283, 4.5051147216009,
      4.499187608078866, 4.49491085927324, 4.491969466515813, 4.489945517296509,
      4.488542381505525, 4.4875640694552565, 4.486879931780747,
      4.486400186826019, 4.486062187712779, 4.485824510193737, 4.48565740557942,
      4.485538770280821, 4.485455213429256, 4.485396531351162,
      4.485355070724461, 4.482555698233827, 4.458086214911614,
      4.427943725752139, 4.348829414451776, 4.316741847459992,
      4.301270833850481, 4.293662239965808, 4.289746839616302,
      4.287229497178173, 4.285688341153042, 4.2848268589217815,
      4.284272623543207, 4.28390710057848, 4.282342479011218, 4.265402540058248,
      4.255922566505392, 4.250854630652803, 4.2487425346342595,
      4.247925869325426, 4.245322851477995, 4.22605816834221, 4.219107153574065,
      4.214510900101599, 4.199259402056134, 4.185392162402537,
      4.172401195016814, 4.160067533164956, 4.142592628378077,
      4.132465427297911, 4.122612695859687, 4.116154057843957,
      4.116154057843957, 4.116154057843957, 4.114799835046064,
      4.114296174792964, 4.102675630202826, 4.098499833104548,
      4.090006040834475, 4.081446205084664, 4.073062487607341,
      4.0594529682568385, 4.048969212975331, 4.033838195309462,
      4.018280457494599, 4.005060809146465, 3.9864624539086457,
      3.9687381053355835, 3.950631421963095, 3.931607029748109,
      3.9100278362639425, 3.888433490307494, 3.86909219094338,
      3.855991378347168, 3.8405715081980336, 3.8256545211183948,
      3.811953521084907, 3.799226762503118, 3.7875757190953765,
      3.774953723143827, 3.7454406996434875, 3.734379596787181,
      3.7162322168216644, 3.700345698522534, 3.689505468171908,
      3.6853123010521944, 3.6806587508667565, 3.676649001336451,
      3.6726846005323943, 3.672176786966598, 3.6699676104787207,
      3.6659210631867283, 3.6644795715203995, 3.6644795715203995,
      3.6644795715203995, 3.664477619658167, 3.664477619658167,
      3.664477619658167, 3.664477619658167, 3.663067452799269,
      3.662523414094313, 3.662209764249017, 3.6620249990279774,
      3.6611087174537205, 3.6604347733708544, 3.6596154268347187,
      3.6575470278487594, 3.655828207090801, 3.653879163183691,
      3.6517982442722814, 3.649125681633403, 3.6457476941904283,
      3.6416195014558825, 3.6370113922939233, 3.6319753687271237,
      3.6255722909563786, 3.6211807915391643, 3.6180861738833014,
      3.6163140513249203, 3.6098323383653703, 3.603452108180053,
      3.5966257282386667, 3.595828309540022, 3.594349819381034,
      3.594167668494063, 3.59355454949997, 3.593172906067554, 3.593172906067554,
      3.593172906067554, 3.593172906067554, 3.5931678632195747,
      3.592614168544387, 3.592045919010132, 3.591353969429947,
      3.5911147033507675, 3.5909005188044, 3.590723372025701,
      3.5905239054472786, 3.5902929512718247, 3.590169698800674,
      3.5898546420026545, 3.5896280284068736, 3.589496118360908,
      3.589275061856576, 3.588799425380693, 3.588116816750733
    ]
  ]
}
