{
  "pso_type": "rpso",
  "pso_runs": 9,
  "min_best_fitness": 1.9130855636245807,
  "mean_best_fitness": 2.317236259699853,
  "max_best_fitness": 3.840669839968168,
  "averages": [
    17.459383505070022, 17.08523252502129, 16.48733480819122, 15.99857417572766,
    14.874705979687159, 13.569076675749281, 12.47068345764364,
    11.623525804548471, 10.765361389098171, 9.920781204998454,
    9.231218958287263, 8.804382830156783, 8.219277093585614, 7.645277033644381,
    7.190470460664904, 6.638595427727507, 6.47807485552302, 6.309655087666954,
    6.201416870097276, 6.181502720663559, 6.026235023116404, 5.891476484386832,
    5.671931239905264, 5.602576964723834, 5.581925651345169, 5.554331309973116,
    5.441672442625272, 5.377462944564878, 5.321745163154923, 5.2997258728477314,
    5.220995670040048, 5.074610703962888, 5.070954008875317, 5.070954008875317,
    5.070443975185715, 5.068851511859358, 5.0447824313660306, 5.012866792282798,
    4.967526872705389, 4.953461373393179, 4.924483663941555, 4.898731869759199,
    4.735321876579043, 4.68142088919821, 4.664128063043409, 4.632676792172653,
    4.614776071124138, 4.583535409413876, 4.479117258404513, 4.386908560416853,
    4.377769643925756, 4.3547437556533914, 4.307525733872543, 4.283160062098679,
    4.242604491823447, 4.1932359383283995, 4.157893110888192, 4.134792136818404,
    4.100312497522271, 4.051880401345258, 4.0238165309772205,
    4.0017057320642175, 3.9301729193452513, 3.9013885413511926,
    3.8773287728903987, 3.8239714985590547, 3.807423824721363,
    3.7860529763390094, 3.761894205800442, 3.7448781363337216,
    3.710799399419086, 3.6623533515800415, 3.6432030847815815,
    3.615966337459835, 3.586867680365855, 3.555685279439756, 3.5401867762125794,
    3.5038052092755114, 3.4740279397727343, 3.4608476581247203,
    3.4254139833456168, 3.399208753672423, 3.387580327869272, 3.360645296503161,
    3.3553265982721006, 3.3189012934808404, 3.3017653561370395,
    3.2689494492422835, 3.2399532329666636, 3.2228292112306796,
    3.1964468133891923, 3.158123405657189, 3.1421709239711304,
    3.125953014643814, 3.105361020373944, 3.0718529613474463,
    3.0567211000231067, 3.0267779197821545, 3.014735467721236,
    3.007961252858879, 2.9887379877218234, 2.9784240703276748,
    2.9562156166224685, 2.945942570917625, 2.9244443854888775,
    2.8967946377140787, 2.882517604759088, 2.8584496889606097, 2.83578298746272,
    2.826759590389427, 2.808372542925902, 2.791656142274796, 2.779319353299339,
    2.7610776581323826, 2.7301679999703086, 2.7145491221375715,
    2.6963416229165578, 2.6862474698513115, 2.6730253853366843,
    2.666118431606068, 2.6565006874862, 2.6499553890952487, 2.644338619210126,
    2.640586646384995, 2.6377818181887767, 2.6318233615488853,
    2.6253178458413644, 2.6191207755923624, 2.613082976660723,
    2.607363208430578, 2.6027427127258864, 2.5961365020226403,
    2.592001859170962, 2.5838164724547954, 2.579125248637042, 2.572332355395824,
    2.5658838995016646, 2.560176888308461, 2.5482768749628084,
    2.541741764211163, 2.537393690192091, 2.5337905166096717,
    2.5264860510403064, 2.519075775384321, 2.5113450567875986,
    2.506659971638003, 2.49949996352095, 2.4878826654207504, 2.4810418184908816,
    2.4763579304089918, 2.4676870757573712, 2.459091997902278,
    2.4495670971010273, 2.442356754186691, 2.4346419373853356,
    2.4258592411551065, 2.4176209481689708, 2.4082874416036493,
    2.399529159221981, 2.392398531241879, 2.3848005298148256,
    2.3759403005095825, 2.368590441676462, 2.362234199434688,
    2.3565143302445977, 2.352387033604893, 2.3502239957354054,
    2.3484783221213488, 2.346848138348997, 2.344786045160926,
    2.3420189369249993, 2.3407788516379036, 2.3398760199160145,
    2.338421138803245, 2.3361550510525437, 2.334007088588196, 2.331930843410834,
    2.3308812518050908, 2.330030726110719, 2.329631826062945, 2.329168438691179,
    2.328747480825494, 2.328440264206508, 2.3280324356549986, 2.327625956084177,
    2.3270088336059453, 2.325577786496144, 2.324508659708194, 2.323922393259305,
    2.3231423842235297, 2.3224975417998115, 2.3220450784621116,
    2.321631383748827, 2.3210132114146393, 2.3205723869613952,
    2.320141066727098, 2.31975086904081, 2.3194260690703286, 2.3179920346260285,
    2.317236259699853
  ],
  "position_bounds": [
    [-4.0, 4.0],
    [-4.0, 4.0],
    [-4.0, 4.0],
    [-4.0, 4.0],
    [-4.0, 4.0],
    [-4.0, 4.0],
    [-4.0, 4.0],
    [-4.0, 4.0],
    [-4.0, 4.0],
    [-4.0, 4.0],
    [-4.0, 4.0],
    [-4.0, 4.0],
    [-4.0, 4.0],
    [-4.0, 4.0],
    [-4.0, 4.0],
    [-4.0, 4.0],
    [-4.0, 4.0],
    [-4.0, 4.0],
    [-4.0, 4.0],
    [-4.0, 4.0],
    [-4.0, 4.0],
    [-4.0, 4.0],
    [-4.0, 4.0],
    [-4.0, 4.0],
    [-4.0, 4.0],
    [-4.0, 4.0],
    [-4.0, 4.0],
    [-4.0, 4.0],
    [-4.0, 4.0],
    [-4.0, 4.0],
    [-4.0, 4.0],
    [-4.0, 4.0],
    [-4.0, 4.0],
    [-4.0, 4.0],
    [-4.0, 4.0],
    [-4.0, 4.0],
    [-4.0, 4.0],
    [-4.0, 4.0],
    [-4.0, 4.0],
    [-4.0, 4.0],
    [-4.0, 4.0],
    [-4.0, 4.0],
    [-4.0, 4.0],
    [-4.0, 4.0],
    [-4.0, 4.0],
    [-4.0, 4.0],
    [-4.0, 4.0],
    [-4.0, 4.0],
    [-4.0, 4.0],
    [-4.0, 4.0],
    [-4.0, 4.0],
    [-4.0, 4.0],
    [-4.0, 4.0],
    [-4.0, 4.0],
    [-4.0, 4.0],
    [-4.0, 4.0],
    [-4.0, 4.0],
    [-4.0, 4.0],
    [-4.0, 4.0],
    [-4.0, 4.0],
    [-4.0, 4.0],
    [-4.0, 4.0],
    [-4.0, 4.0],
    [-4.0, 4.0],
    [-4.0, 4.0],
    [-4.0, 4.0],
    [-4.0, 4.0],
    [-4.0, 4.0],
    [-4.0, 4.0],
    [-4.0, 4.0],
    [-4.0, 4.0],
    [-4.0, 4.0],
    [-4.0, 4.0],
    [-4.0, 4.0],
    [-4.0, 4.0],
    [-4.0, 4.0],
    [-4.0, 4.0],
    [-4.0, 4.0],
    [-4.0, 4.0],
    [-4.0, 4.0],
    [-4.0, 4.0],
    [-4.0, 4.0],
    [-4.0, 4.0],
    [-4.0, 4.0],
    [-4.0, 4.0],
    [-4.0, 4.0],
    [-4.0, 4.0],
    [-4.0, 4.0],
    [-4.0, 4.0],
    [-4.0, 4.0],
    [-4.0, 4.0],
    [-4.0, 4.0],
    [-4.0, 4.0],
    [-4.0, 4.0],
    [-4.0, 4.0],
    [-4.0, 4.0],
    [-4.0, 4.0],
    [-4.0, 4.0],
    [-4.0, 4.0],
    [-4.0, 4.0],
    [-4.0, 4.0],
    [-4.0, 4.0],
    [-4.0, 4.0],
    [-4.0, 4.0],
    [-4.0, 4.0],
    [-4.0, 4.0],
    [-4.0, 4.0],
    [-4.0, 4.0],
    [-4.0, 4.0],
    [-4.0, 4.0],
    [-4.0, 4.0],
    [-4.0, 4.0],
    [-4.0, 4.0],
    [-4.0, 4.0],
    [-4.0, 4.0],
    [-4.0, 4.0],
    [-4.0, 4.0],
    [-4.0, 4.0],
    [-4.0, 4.0],
    [-4.0, 4.0],
    [-4.0, 4.0],
    [-4.0, 4.0],
    [-4.0, 4.0],
    [-4.0, 4.0],
    [-4.0, 4.0],
    [-4.0, 4.0],
    [-4.0, 4.0],
    [-4.0, 4.0],
    [-4.0, 4.0],
    [-4.0, 4.0],
    [-4.0, 4.0],
    [-4.0, 4.0],
    [-4.0, 4.0],
    [-4.0, 4.0],
    [-4.0, 4.0],
    [-4.0, 4.0],
    [-4.0, 4.0],
    [-4.0, 4.0],
    [-4.0, 4.0],
    [-4.0, 4.0]
  ],
  "velocity_bounds": [
    [-0.0902293995771882, 0.0902293995771882],
    [-0.0902293995771882, 0.0902293995771882],
    [-0.0902293995771882, 0.0902293995771882],
    [-0.0902293995771882, 0.0902293995771882],
    [-0.0902293995771882, 0.0902293995771882],
    [-0.0902293995771882, 0.0902293995771882],
    [-0.0902293995771882, 0.0902293995771882],
    [-0.0902293995771882, 0.0902293995771882],
    [-0.0902293995771882, 0.0902293995771882],
    [-0.0902293995771882, 0.0902293995771882],
    [-0.0902293995771882, 0.0902293995771882],
    [-0.0902293995771882, 0.0902293995771882],
    [-0.0902293995771882, 0.0902293995771882],
    [-0.0902293995771882, 0.0902293995771882],
    [-0.0902293995771882, 0.0902293995771882],
    [-0.0902293995771882, 0.0902293995771882],
    [-0.0902293995771882, 0.0902293995771882],
    [-0.0902293995771882, 0.0902293995771882],
    [-0.0902293995771882, 0.0902293995771882],
    [-0.0902293995771882, 0.0902293995771882],
    [-0.0902293995771882, 0.0902293995771882],
    [-0.0902293995771882, 0.0902293995771882],
    [-0.0902293995771882, 0.0902293995771882],
    [-0.0902293995771882, 0.0902293995771882],
    [-0.0902293995771882, 0.0902293995771882],
    [-0.0902293995771882, 0.0902293995771882],
    [-0.0902293995771882, 0.0902293995771882],
    [-0.0902293995771882, 0.0902293995771882],
    [-0.0902293995771882, 0.0902293995771882],
    [-0.0902293995771882, 0.0902293995771882],
    [-0.0902293995771882, 0.0902293995771882],
    [-0.0902293995771882, 0.0902293995771882],
    [-0.0902293995771882, 0.0902293995771882],
    [-0.0902293995771882, 0.0902293995771882],
    [-0.0902293995771882, 0.0902293995771882],
    [-0.0902293995771882, 0.0902293995771882],
    [-0.0902293995771882, 0.0902293995771882],
    [-0.0902293995771882, 0.0902293995771882],
    [-0.0902293995771882, 0.0902293995771882],
    [-0.0902293995771882, 0.0902293995771882],
    [-0.0902293995771882, 0.0902293995771882],
    [-0.0902293995771882, 0.0902293995771882],
    [-0.0902293995771882, 0.0902293995771882],
    [-0.0902293995771882, 0.0902293995771882],
    [-0.0902293995771882, 0.0902293995771882],
    [-0.0902293995771882, 0.0902293995771882],
    [-0.0902293995771882, 0.0902293995771882],
    [-0.0902293995771882, 0.0902293995771882],
    [-0.0902293995771882, 0.0902293995771882],
    [-0.0902293995771882, 0.0902293995771882],
    [-0.0902293995771882, 0.0902293995771882],
    [-0.0902293995771882, 0.0902293995771882],
    [-0.0902293995771882, 0.0902293995771882],
    [-0.0902293995771882, 0.0902293995771882],
    [-0.0902293995771882, 0.0902293995771882],
    [-0.0902293995771882, 0.0902293995771882],
    [-0.0902293995771882, 0.0902293995771882],
    [-0.0902293995771882, 0.0902293995771882],
    [-0.0902293995771882, 0.0902293995771882],
    [-0.0902293995771882, 0.0902293995771882],
    [-0.0902293995771882, 0.0902293995771882],
    [-0.0902293995771882, 0.0902293995771882],
    [-0.0902293995771882, 0.0902293995771882],
    [-0.0902293995771882, 0.0902293995771882],
    [-0.0902293995771882, 0.0902293995771882],
    [-0.0902293995771882, 0.0902293995771882],
    [-0.0902293995771882, 0.0902293995771882],
    [-0.0902293995771882, 0.0902293995771882],
    [-0.0902293995771882, 0.0902293995771882],
    [-0.0902293995771882, 0.0902293995771882],
    [-0.0902293995771882, 0.0902293995771882],
    [-0.0902293995771882, 0.0902293995771882],
    [-0.0902293995771882, 0.0902293995771882],
    [-0.0902293995771882, 0.0902293995771882],
    [-0.0902293995771882, 0.0902293995771882],
    [-0.0902293995771882, 0.0902293995771882],
    [-0.0902293995771882, 0.0902293995771882],
    [-0.0902293995771882, 0.0902293995771882],
    [-0.0902293995771882, 0.0902293995771882],
    [-0.0902293995771882, 0.0902293995771882],
    [-0.0902293995771882, 0.0902293995771882],
    [-0.0902293995771882, 0.0902293995771882],
    [-0.0902293995771882, 0.0902293995771882],
    [-0.0902293995771882, 0.0902293995771882],
    [-0.0902293995771882, 0.0902293995771882],
    [-0.0902293995771882, 0.0902293995771882],
    [-0.0902293995771882, 0.0902293995771882],
    [-0.0902293995771882, 0.0902293995771882],
    [-0.0902293995771882, 0.0902293995771882],
    [-0.0902293995771882, 0.0902293995771882],
    [-0.0902293995771882, 0.0902293995771882],
    [-0.0902293995771882, 0.0902293995771882],
    [-0.0902293995771882, 0.0902293995771882],
    [-0.0902293995771882, 0.0902293995771882],
    [-0.0902293995771882, 0.0902293995771882],
    [-0.0902293995771882, 0.0902293995771882],
    [-0.0902293995771882, 0.0902293995771882],
    [-0.0902293995771882, 0.0902293995771882],
    [-0.0902293995771882, 0.0902293995771882],
    [-0.0902293995771882, 0.0902293995771882],
    [-0.0902293995771882, 0.0902293995771882],
    [-0.0902293995771882, 0.0902293995771882],
    [-0.0902293995771882, 0.0902293995771882],
    [-0.0902293995771882, 0.0902293995771882],
    [-0.0902293995771882, 0.0902293995771882],
    [-0.0902293995771882, 0.0902293995771882],
    [-0.0902293995771882, 0.0902293995771882],
    [-0.0902293995771882, 0.0902293995771882],
    [-0.0902293995771882, 0.0902293995771882],
    [-0.0902293995771882, 0.0902293995771882],
    [-0.0902293995771882, 0.0902293995771882],
    [-0.0902293995771882, 0.0902293995771882],
    [-0.0902293995771882, 0.0902293995771882],
    [-0.0902293995771882, 0.0902293995771882],
    [-0.0902293995771882, 0.0902293995771882],
    [-0.0902293995771882, 0.0902293995771882],
    [-0.0902293995771882, 0.0902293995771882],
    [-0.0902293995771882, 0.0902293995771882],
    [-0.0902293995771882, 0.0902293995771882],
    [-0.0902293995771882, 0.0902293995771882],
    [-0.0902293995771882, 0.0902293995771882],
    [-0.0902293995771882, 0.0902293995771882],
    [-0.0902293995771882, 0.0902293995771882],
    [-0.0902293995771882, 0.0902293995771882],
    [-0.0902293995771882, 0.0902293995771882],
    [-0.0902293995771882, 0.0902293995771882],
    [-0.0902293995771882, 0.0902293995771882],
    [-0.0902293995771882, 0.0902293995771882],
    [-0.0902293995771882, 0.0902293995771882],
    [-0.0902293995771882, 0.0902293995771882],
    [-0.0902293995771882, 0.0902293995771882],
    [-0.0902293995771882, 0.0902293995771882],
    [-0.0902293995771882, 0.0902293995771882],
    [-0.0902293995771882, 0.0902293995771882],
    [-0.0902293995771882, 0.0902293995771882],
    [-0.0902293995771882, 0.0902293995771882],
    [-0.0902293995771882, 0.0902293995771882],
    [-0.0902293995771882, 0.0902293995771882],
    [-0.0902293995771882, 0.0902293995771882],
    [-0.0902293995771882, 0.0902293995771882]
  ],
  "fitness_threshold": 0.1,
  "num_particles": 30,
  "Cp_min": 0.2592519554741033,
  "Cp_max": 1.8444850868438145,
  "Cg_min": 0.2846416658825203,
  "Cg_max": 2.3851152776490885,
  "w_min": 0.2688144658517782,
  "w_max": 1.8084604521076595,
  "gwn_std_dev": 0.07423978341526306,
  "iterations": 200,
  "elapsed_time": 755.5447070598602,
  "best_weights": [
    1.0616706272128518, -0.3406875442034887, 0.059403947766784426,
    0.7060630936828521, -0.6272171626162558, 0.9429939590075719,
    2.1698699319559758, 0.4159695348561033, 0.28272863487380573,
    1.2378559082938352, 2.4675290938399543, 0.012282162475424761,
    -0.5084553851139738, -0.8971445656258351, 0.8434204791194817,
    0.4631812402692527, 0.5777877088948252, 1.5971644567964094,
    -1.0490297356061413, -0.4646309302666992, 2.371608112697161,
    -1.076892146404235, 1.2803360843801173, -1.0987629012440256,
    -0.0569924759075328, 2.056184434900034, -1.001396567389835,
    -2.145870987469923, 0.5513213765916872, -0.8719027671133011,
    -0.5101958780126759, -0.16478496203700174, -0.7763593481676763,
    2.491655845399837, -0.8278816130610478, 1.4801506686064938,
    0.009770388421684522, -1.4213792760731978, 1.171532495801793,
    -2.8101297575186477, -2.4938988204774484, -0.8992098833354925,
    2.59935461256788, -1.1620361403805382, 0.3778244569539892,
    -1.9351375820383605, -0.33890325432867935, 1.9888904525399578,
    1.993066331365426, -0.034198093433304586, -1.5730309442213812,
    -0.2229809088114616, -1.723234131295005, 1.4638026084144675,
    0.08306926018891038, -0.2444265394890297, 1.3556610687829544,
    1.7800569320369035, -1.3860605426905408, 0.8920535932914124,
    -1.6587061987239544, 1.006505784353542, 0.20345830582784605,
    0.29352723528564073, 0.8749695068761779, -0.12470596203368566,
    -0.30867949114601856, 0.24234293243405952, 0.06766493172369194,
    -0.10402049147709566, -0.936943910483723, -0.2417615919358194,
    2.3430892035781414, 0.29888170022229643, -2.605569281011086,
    1.8196553369969533, 0.3502662599182801, -1.0689787674508204,
    1.1701175930786356, -1.4768537358585947, -0.38231439780185744,
    0.3043413082248415, 0.956659083958766, 2.7095032793127545,
    -0.2494942494799746, 0.08677219859870743, -2.6599480689572204,
    -0.7335983886704799, -0.26330379359003264, 0.1879969044717191,
    0.7888725584101615, -0.7040183216908029, -1.3276419251471987,
    -1.1481136499065487, -0.1847033345589761, 0.017619722264201512,
    1.3205589699648945, 0.3150356136672422, 0.2300838153330466,
    -1.9334183333190673, 1.0885594047678877, 0.04991555355520899,
    -1.3174893303200559, 1.5487222066781434, -1.7067379561179037,
    -1.5218135354201363, 0.6464045002056387, -0.7343852050843415,
    2.64407374251506, -1.3611397849770035, -2.369978602118935,
    0.45616528257222144, 0.06792123020195108, -3.061313344393388,
    -0.6379401013436417, -1.6450555960748443, 0.8401250346484304,
    -1.0310157367808117, 0.17722700446441594, 0.7340508282374737,
    -0.20367487789622324, -3.4788243132421504, 1.9414049753169251,
    -1.9483678534875717, -0.2655213165775525, -0.6000348172147287,
    0.5526626092945438, 0.2735875357814241, -0.7919988541996938,
    1.3210218647071557, 0.3725798561129352, 0.3838507935460066,
    0.8032378371160671, 0.45123835801052015, 1.1677947711003709,
    2.162192294617706, 1.9541992859454658, 0.027368672899234333,
    -1.272264342389473, -0.09411426054111996
  ],
  "fitness_histories": [
    [
      15.22774996171412, 15.22774996171412, 15.22774996171412,
      15.22774996171412, 15.22774996171412, 12.831025812017987,
      11.639093203535486, 11.639093203535486, 11.639093203535486,
      10.494947762034455, 9.003147846313428, 8.411270627662466,
      8.401102411500268, 7.183590298310073, 5.750302845816342,
      5.429097666366601, 5.429097666366601, 5.429097666366601,
      5.429097666366601, 5.429097666366601, 5.429097666366601,
      5.429097666366601, 5.429097666366601, 5.429097666366601,
      5.421056328344863, 5.421056328344863, 4.960188296958512,
      4.752752209452238, 4.752752209452238, 4.752752209452238,
      4.752752209452238, 4.577788356863429, 4.577788356863429,
      4.577788356863429, 4.577788356863429, 4.563456186926212,
      4.494351550759732, 4.494351550759732, 4.494351550759732,
      4.485182207673971, 4.485182207673971, 4.485182207673971,
      4.485182207673971, 4.440556722568428, 4.440556722568428,
      4.431796424652259, 4.431796424652259, 4.431796424652259,
      4.406547157602294, 4.222907158581055, 4.190208811507274,
      4.190208811507274, 4.190208811507274, 4.190208811507274,
      4.163736355660998, 4.163736355660998, 4.163736355660998,
      4.082917302535139, 4.082917302535139, 4.082917302535139,
      4.082917302535139, 4.051513370285184, 3.9468107796682337,
      3.9468107796682337, 3.9468107796682337, 3.9234924628548864,
      3.9234924628548864, 3.9234924628548864, 3.9124025034106404,
      3.83587372954089, 3.83587372954089, 3.83587372954089, 3.799113551696833,
      3.782732586211537, 3.782732586211537, 3.782732586211537,
      3.7455340177096006, 3.518849297269221, 3.5188345267135825,
      3.5188345267135825, 3.411241286655591, 3.2997596017377164,
      3.2712497000717824, 3.1303922289222754, 3.097661791648574,
      2.9334658253254036, 2.9334658253254036, 2.7978275318012504,
      2.7033303243461195, 2.681725352727635, 2.6321248138365347,
      2.396002113920881, 2.396002113920881, 2.394450698169744,
      2.3796372566755117, 2.3796372566755117, 2.3796372566755117,
      2.3609955129811016, 2.3572544901286516, 2.3572544901286516,
      2.334534086349906, 2.334534086349906, 2.334534086349906,
      2.334534086349906, 2.330182593562582, 2.330182593562582,
      2.3287875877537076, 2.3053871256676906, 2.2934856709443703,
      2.2934856709443703, 2.2934856709443703, 2.2926232046718567,
      2.291859451045628, 2.2815833697313512, 2.2815833697313512,
      2.277062007691345, 2.2732880533394377, 2.272538994012882,
      2.2696130839578808, 2.2696130839578808, 2.2688498861219566,
      2.267234809113732, 2.267234809113732, 2.265225710706723,
      2.265225710706723, 2.25699682582485, 2.253779627583561, 2.243219330920133,
      2.2386711806198214, 2.236723299384945, 2.231586450165937,
      2.231586450165937, 2.2133042032362455, 2.2121229464697145,
      2.197889776803601, 2.1953040289121484, 2.1928417923302597,
      2.1892639677362955, 2.184615167558893, 2.1837511910062446,
      2.1837511910062446, 2.1793352614976054, 2.1766706254970813,
      2.1753717170615596, 2.1698855063122915, 2.1677511020042126,
      2.163798842911852, 2.1604083226287103, 2.1579598544313567,
      2.156095305712545, 2.1534435418608444, 2.146685964821422,
      2.142318723792691, 2.1381596757518437, 2.133061544668772,
      2.1235623826110164, 2.121564893576496, 2.1210874553889103,
      2.119255041734072, 2.1188048769165397, 2.117712765107503,
      2.1092597082207853, 2.106622439998637, 2.102164937285718,
      2.0969881666774617, 2.0910009299905132, 2.084590634197184,
      2.077969193891998, 2.0724645405900612, 2.0686704637617805,
      2.0651122225732164, 2.0623490249401013, 2.060150542267584,
      2.0579743874145153, 2.0560609121836286, 2.054994045351038,
      2.0540627809864143, 2.0529153237771696, 2.052418895982241,
      2.052122538493836, 2.0514864626388305, 2.051102560394491,
      2.0506154601884687, 2.0502736071848675, 2.0500391607498405,
      2.0498146903787617, 2.0496440531910642, 2.049513884803288,
      2.049197793635994, 2.049153348494981, 2.0490723674350995,
      2.0489914995336442, 2.0488334779333077, 2.0487179212869195,
      2.04856814179553, 2.04847538241603, 2.048395538482247, 2.0483553825580154,
      2.0483081255924764, 2.048255978710007
    ],
    [
      15.517568660514735, 15.517568660514735, 12.919345372861631,
      10.896100849978865, 9.813696138406398, 9.614992562150782,
      9.614992562150782, 9.614992562150782, 9.614992562150782,
      9.614992562150782, 9.614992562150782, 9.614992562150782,
      6.931257033623996, 5.234951978169916, 5.234951978169916,
      5.234951978169916, 5.092974270219147, 5.092974270219147,
      5.092974270219147, 5.092974270219147, 5.092974270219147,
      5.092974270219147, 5.092974270219147, 5.092974270219147,
      5.092974270219147, 5.092974270219147, 5.092974270219147,
      5.092974270219147, 5.092974270219147, 5.092974270219147,
      5.092974270219147, 5.092974270219147, 5.092974270219147,
      5.092974270219147, 5.092974270219147, 5.092974270219147,
      5.092974270219147, 5.092974270219147, 5.092974270219147,
      5.092974270219147, 5.092974270219147, 5.092974270219147,
      5.092974270219147, 5.092974270219147, 5.092974270219147,
      5.092974270219147, 5.092974270219147, 5.092974270219147,
      5.092974270219147, 5.092974270219147, 5.092974270219147,
      5.067006307227224, 5.067006307227224, 5.067006307227224,
      5.067006307227224, 5.067006307227224, 5.0320803507953205,
      5.0320803507953205, 4.918123104954601, 4.918123104954601,
      4.918123104954601, 4.918123104954601, 4.7902350678233825,
      4.7902350678233825, 4.7902350678233825, 4.7137181819791785,
      4.7137181819791785, 4.692215239105902, 4.692215239105902,
      4.692215239105902, 4.6404589485232695, 4.6404589485232695,
      4.598522172797045, 4.592766066035707, 4.592766066035707,
      4.518499284597942, 4.518499284597942, 4.518499284597942,
      4.518499284597942, 4.459474340346843, 4.459474340346843,
      4.459474340346843, 4.458393393614081, 4.430513711942328,
      4.430513711942328, 4.430513711942328, 4.430513711942328,
      4.430513711942328, 4.430513711942328, 4.427225171977214,
      4.427225171977214, 4.427225171977214, 4.427225171977214,
      4.427225171977214, 4.427225171977214, 4.427225171977214,
      4.427225171977214, 4.392261349529789, 4.392261349529789,
      4.392261349529789, 4.392261349529789, 4.392261349529789,
      4.392261349529789, 4.392261349529789, 4.373965767822828,
      4.373965767822828, 4.358945326327247, 4.358945326327247,
      4.358945326327247, 4.353076171601149, 4.344535701689749,
      4.333470317925102, 4.333470317925102, 4.333470317925102,
      4.282714370555284, 4.282714370555284, 4.2768208780728845,
      4.262321338656874, 4.255708787205034, 4.2536094148615975,
      4.2277033988257005, 4.2277033988257005, 4.2277033988257005,
      4.212915299316362, 4.2018650818434935, 4.192447984403469,
      4.188554545606223, 4.173048447299151, 4.165873693667607, 4.16483905128639,
      4.161112758657087, 4.155299945751228, 4.155299945751228,
      4.145185384803634, 4.13734761213895, 4.129064464876098, 4.128068418497669,
      4.109606138045748, 4.04178632316565, 4.04178632316565, 4.04178632316565,
      4.04178632316565, 4.04178632316565, 4.017370178745813, 4.005696531916834,
      4.002182841747651, 3.9847902567767517, 3.9836511290974483,
      3.982733294783306, 3.979064154511125, 3.9614596953762917,
      3.956937737974535, 3.949118411999649, 3.9422028325433227,
      3.9334154287488663, 3.9251482552877883, 3.9136811639805176,
      3.9041365132071553, 3.8986810214443315, 3.895496183824145,
      3.8947472239826686, 3.893078991429316, 3.8912479254315437,
      3.8893584982086558, 3.8888082283979832, 3.8867394834952647,
      3.8849048158039143, 3.8845146025217345, 3.8839080308894065,
      3.882838289416995, 3.8809135598334223, 3.8801746887523474,
      3.879345702817708, 3.8785188756170914, 3.8769889157274284,
      3.875835451694047, 3.875397323419584, 3.8745775300117273,
      3.8741815994859996, 3.8736217878111026, 3.8729795295219662,
      3.8723885134858875, 3.872271038302922, 3.8720894003706694,
      3.8719013499547916, 3.871863049110768, 3.8627501027141355,
      3.857514338290551, 3.8562981699898025, 3.8535961794276163,
      3.850663209740134, 3.849190312244315, 3.847587220787831,
      3.8454015641669033, 3.8441810676331976, 3.8431299221164252,
      3.8418635259295293, 3.8410864804957168, 3.8407583612391853,
      3.840669839968168
    ],
    [
      11.672831259982448, 11.672831259982448, 11.672831259982448,
      11.672831259982448, 11.672831259982448, 11.672831259982448,
      11.672831259982448, 10.989479582720168, 10.79069940854558,
      10.104195778926059, 9.430292269727406, 8.647960232709412,
      8.038410008293045, 7.510013253800929, 7.042207715919785,
      6.606024576056533, 6.361343116730876, 6.294379485243009,
      6.294379485243009, 6.294379485243009, 6.294379485243009,
      6.294379485243009, 5.820856793446688, 5.604283138988708,
      5.426462656602455, 5.180734842088362, 5.180734842088362,
      5.180734842088362, 5.174088940611327, 5.174088940611327,
      5.174088940611327, 5.174088940611327, 5.174088940611327,
      5.174088940611327, 5.174088940611327, 5.174088940611327,
      5.167924645798671, 4.967631088086084, 4.7567692757659685,
      4.7567692757659685, 4.7567692757659685, 4.7567692757659685,
      4.7567692757659685, 4.7567692757659685, 4.7567692757659685,
      4.75067274449299, 4.75067274449299, 4.75067274449299, 4.75067274449299,
      4.75067274449299, 4.75067274449299, 4.75067274449299, 4.75067274449299,
      4.75067274449299, 4.75067274449299, 4.75067274449299, 4.75067274449299,
      4.75067274449299, 4.75067274449299, 4.75067274449299, 4.710464580325384,
      4.710464580325384, 4.698381737852922, 4.670780934094615,
      4.657334169475292, 4.657334169475292, 4.657334169475292,
      4.643058575463018, 4.633469533404982, 4.625957699158025,
      4.625957699158025, 4.616059606051583, 4.580034814560681,
      4.580034814560681, 4.557641983373464, 4.548668576460748,
      4.546738245634601, 4.527370291525953, 4.522727370316603,
      4.489216493752914, 4.410698342942592, 4.326590696431008,
      4.326590696431008, 4.310376293988306, 4.310376293988306,
      4.310376293988306, 4.297379675618157, 4.294461991138699,
      4.160376085374125, 4.135977962398293, 4.043067348586352,
      4.043067348586352, 4.043067348586352, 4.0140976431716275,
      4.0140976431716275, 3.979579897422986, 3.979579897422986,
      3.9654591049954244, 3.954256280353221, 3.954256280353221,
      3.94224782830282, 3.9410368762358816, 3.9305465093058505,
      3.9305465093058505, 3.9229011560998814, 3.8974866299892326,
      3.8932687134366173, 3.8932687134366173, 3.8932687134366173,
      3.8865617116516447, 3.8561431078571147, 3.8561431078571147,
      3.8198274331784536, 3.799917877715303, 3.7282930910214924,
      3.718132031809688, 3.644944146124758, 3.6279721407761727,
      3.6174677499257584, 3.6068740701418074, 3.580130069436991,
      3.5574442810713487, 3.5542729733404768, 3.5468736556130436,
      3.5342537586790943, 3.5088019727792688, 3.501947542304181,
      3.501947542304181, 3.4825208717262957, 3.4785685377257227,
      3.4644367791836594, 3.4511761581662017, 3.4432069049039193,
      3.4095440257103053, 3.3936925275513126, 3.362329647471253,
      3.340794478168528, 3.3240233743812055, 3.3046649905040133,
      3.270457803019786, 3.2599015159006846, 3.244613291499767,
      3.194713284518014, 3.1578822683623597, 3.1339550645986978,
      3.1126927450164317, 3.0876379808489935, 3.0159768012998716,
      2.9812842537053728, 2.9595928107955816, 2.9218020506539397,
      2.8777421230658726, 2.820017706768097, 2.8001855618432887,
      2.771024788191188, 2.7350613849732026, 2.6958092273261323,
      2.6483541379879227, 2.601689974207786, 2.554672941113905,
      2.5026931561629824, 2.4538564381224086, 2.4068980149461687,
      2.369610644682235, 2.339159730204033, 2.325905272919026, 2.32573531223659,
      2.3212144941614667, 2.317727958224645, 2.3104738173942283,
      2.3043599558691734, 2.302331890882091, 2.2992641972033705,
      2.29764019942036, 2.288632192949691, 2.280299890270815,
      2.2705933913643523, 2.266638167520016, 2.264360693334395,
      2.264360693334395, 2.2641790577204626, 2.2635925647708532,
      2.2633300733847124, 2.261444760397077, 2.2599255662661717,
      2.2574183770142913, 2.256015788679133, 2.25443170461893,
      2.2533169774396744, 2.2528141225236693, 2.252615150615983,
      2.252498511039758, 2.25238070105372, 2.2523060742897965,
      2.2522190595363214, 2.2521624240402898, 2.252026387170173,
      2.251712782938389, 2.2407332432775875, 2.237133111123423
    ],
    [
      9.808553691798926, 9.808553691798926, 9.808553691798926,
      9.808553691798926, 9.808553691798926, 9.279009718838788,
      9.279009718838788, 9.279009718838788, 9.251289896338443,
      9.251289896338443, 9.251289896338443, 9.251289896338443,
      9.251289896338443, 9.219884149646902, 8.663384427366024,
      8.309265425218904, 8.086137055961453, 6.949459455587428,
      5.975315497460318, 5.829890661244884, 5.829890661244884,
      5.6267951643916705, 5.613993578943509, 5.562158981328144,
      5.562158981328144, 5.562158981328144, 5.562158981328144,
      5.562158981328144, 5.562158981328144, 5.5330457627971965,
      5.5330457627971965, 5.5330457627971965, 5.5330457627971965,
      5.5330457627971965, 5.5330457627971965, 5.5330457627971965,
      5.5330457627971965, 5.5330457627971965, 5.5330457627971965,
      5.5330457627971965, 5.5330457627971965, 5.5330457627971965,
      4.964432477986906, 4.834442844420316, 4.834442844420316,
      4.834442844420316, 4.834442844420316, 4.714240945050251,
      4.094612554868569, 3.516475727146686, 3.4669238258005914,
      3.4669238258005914, 3.4669238258005914, 3.4669238258005914,
      3.3978273742905944, 3.3978273742905944, 3.3905881536916427,
      3.356282358706178, 3.356282358706178, 3.3410321179387283,
      3.279936027833422, 3.235679916083812, 3.235679916083812,
      3.127700401856286, 3.127700401856286, 2.9792101841306913,
      2.975223750828276, 2.9323810859629056, 2.861885844483149,
      2.861885844483149, 2.860971307476639, 2.82193724097874, 2.82193724097874,
      2.82193724097874, 2.82193724097874, 2.7792466052529523,
      2.7792466052529523, 2.7792466052529523, 2.7733582391293026,
      2.7733582391293026, 2.7696814664447658, 2.7696814664447658,
      2.7676069840977267, 2.7676069840977267, 2.7676069840977267,
      2.744229765289289, 2.744229765289289, 2.7334327164081826,
      2.7334327164081826, 2.7334327164081826, 2.7180216898947442,
      2.7180216898947442, 2.7180216898947442, 2.714319763113444,
      2.714319763113444, 2.6828614058838656, 2.6828614058838656,
      2.6828614058838656, 2.6828614058838656, 2.6828614058838656,
      2.6828614058838656, 2.6706209865033723, 2.658526623035663,
      2.658526623035663, 2.6542322910246603, 2.6430079074702357,
      2.6430079074702357, 2.6255904850533405, 2.6126401653744873,
      2.6126401653744873, 2.6047244174036717, 2.6047244174036717,
      2.603169446110094, 2.5909136235198997, 2.5580991776591615,
      2.5498708879284417, 2.531302651693676, 2.5298937708148275,
      2.5298937708148275, 2.525185089126039, 2.525185089126039,
      2.524801163351132, 2.5071879051766373, 2.5071879051766373,
      2.5071879051766373, 2.5071879051766373, 2.5071879051766373,
      2.5071879051766373, 2.5071879051766373, 2.503157624259493,
      2.503157624259493, 2.5024621283440807, 2.5024621283440807,
      2.5011760806361547, 2.498274780089463, 2.4971516595568715,
      2.4946164339731522, 2.4946164339731522, 2.4933140997561307,
      2.4927617191815474, 2.4907204067666524, 2.4898408466629802,
      2.488184952481943, 2.4869480843457423, 2.4855244214813648,
      2.4842564776477123, 2.482154189473048, 2.479782081535698,
      2.4789747169193244, 2.4789747169193244, 2.4781724768921616,
      2.477146597253022, 2.476498961009642, 2.474688570099667,
      2.474563802948322, 2.4728499543067493, 2.471843567852117,
      2.4671879909096943, 2.4655376733126935, 2.465410218837761,
      2.465410218837761, 2.46427598994767, 2.463792773320131, 2.46297203613093,
      2.4628818157864365, 2.4627701974175515, 2.462595450783082,
      2.4623508814862087, 2.462250858619301, 2.4621364034615323,
      2.46202194298294, 2.4619197762168423, 2.4618611857793433,
      2.4617840960711694, 2.4611317391412526, 2.461047167075295,
      2.4604402554442064, 2.459702342253589, 2.458662743777678,
      2.457715738165764, 2.4561739883115274, 2.455254669032752,
      2.4549173015642567, 2.4547940547357068, 2.454542491570685,
      2.4542865311560833, 2.4541418798605745, 2.4540382191884853,
      2.4537936714627406, 2.4535108129256464, 2.4534663066210243,
      2.453199834957767, 2.452868114068889, 2.4525820380283463,
      2.4525412089611933, 2.4524684926535745, 2.452323442455839,
      2.452190342601666, 2.4521825644466646, 2.452175272403944
    ],
    [
      27.698878032120383, 24.331519211681737, 21.54866304786426,
      20.631205417107616, 20.631205417107616, 20.10608841271135,
      18.517423106255734, 16.370047482821903, 13.609348091247796,
      11.107104706600136, 9.514258676537153, 8.82542607735045,
      8.650863569073474, 7.571698608107147, 6.1723496652915735,
      5.391165797431526, 5.391165797431526, 5.391165797431526,
      5.391165797431526, 5.391165797431526, 5.391165797431526,
      5.391165797431526, 5.353149356998185, 5.353149356998185,
      5.353149356998185, 5.350528099163802, 5.350528099163802,
      5.282641346056389, 5.249038244891905, 5.249038244891905,
      5.138197305326248, 5.101429211684805, 5.101429211684805,
      5.101429211684805, 5.101429211684805, 5.101429211684805,
      5.101429211684805, 5.101429211684805, 5.099494924031655,
      5.088944116280698, 5.009105973566435, 5.009105973566435,
      5.009105973566435, 4.995559628041132, 4.9907390660272855,
      4.9907390660272855, 4.949208151934687, 4.9381798384817355,
      4.9381798384817355, 4.9381798384817355, 4.9381798384817355,
      4.91558047866788, 4.751882280542088, 4.713648381439029, 4.713648381439029,
      4.6700940261948665, 4.532857254685771, 4.46605403646398, 4.46605403646398,
      4.420421563667555, 4.420421563667555, 4.420077871957126,
      4.405258175301926, 4.3741936076729875, 4.341597867824523,
      4.321672718668117, 4.274497840344451, 4.229266812245952,
      4.229266812245952, 4.229266812245952, 4.1979869650483455,
      4.167500348929223, 4.153861600080936, 4.1047539202104915,
      4.096567363813241, 4.096567363813241, 4.070457997714413,
      4.044558535935702, 4.044558535935702, 4.031991106856091,
      4.014062480993334, 3.9926745571131335, 3.966289448366094,
      3.9170204300434075, 3.9080789175508808, 3.8586991061903566,
      3.8347076495566594, 3.7776185560020323, 3.745235722741158,
      3.6958891275545955, 3.6578098458431607, 3.597544118519241,
      3.477977130553664, 3.3812534184182987, 3.290425287835769,
      3.0943721569512825, 2.9613337993881954, 2.7897032955282715,
      2.714588619840856, 2.710993345713285, 2.6646533657610827,
      2.6555560832464242, 2.583209116830861, 2.545706264323578,
      2.480015414405418, 2.367353376865357, 2.3481593045289326,
      2.19553284540456, 2.148884563748516, 2.1206377919803727,
      2.1206377919803727, 2.1206377919803727, 2.118700788708489,
      2.118700788708489, 2.1151678721222815, 2.106591769146537,
      2.102074769843522, 2.0931561894796884, 2.080352048791651,
      2.072468682065152, 2.072468682065152, 2.0694828314353595,
      2.0694828314353595, 2.0694828314353595, 2.0694828314353595,
      2.0694828314353595, 2.0694828314353595, 2.0676024927937156,
      2.0664109805076407, 2.061891061304584, 2.061891061304584,
      2.041696885592457, 2.041696885592457, 2.0365608625301506,
      2.036205760646188, 2.035289093777949, 2.0154947638021334,
      2.0142076817309684, 2.01170038011182, 2.0060368267189386,
      2.0000581732872678, 1.9981691205615817, 1.9924794301080466,
      1.9924794301080466, 1.9919000754859228, 1.9917266911143126,
      1.9900717476989065, 1.9876225847551419, 1.985167217562125,
      1.9842205438050806, 1.9815445786264159, 1.979427327174161,
      1.9768004142302291, 1.9676843817084302, 1.963261598670086,
      1.9589764032933827, 1.9560269579014578, 1.950422813353143,
      1.9445054551801133, 1.9400794179135785, 1.9342443739459292,
      1.9314544248563674, 1.9308751578885033, 1.9307466758453429,
      1.929775467693817, 1.9288399259676046, 1.9279439980299726,
      1.9274419777297185, 1.9257468323021025, 1.9255027337462247,
      1.925170677842477, 1.9249696085128514, 1.9248702736281325,
      1.9247436823435888, 1.9245224372703496, 1.924085508837537,
      1.923236891622139, 1.923052109411517, 1.9223083999857467,
      1.9219566886102497, 1.9217418221331577, 1.92167048412825,
      1.9213125134574767, 1.9211213409688817, 1.9208717518879097,
      1.9206394472829487, 1.9202754489685845, 1.9199336721963978,
      1.9195579890250725, 1.9191913010273272, 1.9187334637752547,
      1.9178717252659483, 1.9170189271170612, 1.9161395578228928,
      1.9155369898630752, 1.914886857617174, 1.914606569776637,
      1.9144538323650755, 1.91435301775241, 1.9130855636245807
    ],
    [
      26.494359981698818, 26.494359981698818, 26.494359981698818,
      25.036216443166136, 20.4754275546305, 16.865279499252026,
      14.173975476574908, 12.17301949248637, 10.758074190036073,
      9.733249458404488, 9.004225692543786, 8.45631763011112, 8.089138293118452,
      7.879820544140668, 7.747702965725853, 7.499791968957321,
      7.052723016468284, 7.014121933224473, 7.014121933224473,
      7.014121933224473, 7.014121933224473, 7.014121933224473,
      6.987533913190568, 6.987533913190568, 6.987533913190568,
      6.987533913190568, 6.987533913190568, 6.987533913190568,
      6.987533913190568, 6.987533913190568, 6.640423652737963, 6.17202580907522,
      6.13911555328708, 6.13911555328708, 6.13911555328708, 6.13911555328708,
      6.099539329769125, 6.012592135732627, 5.817328959509212,
      5.817328959509212, 5.817328959509212, 5.78290892847612, 5.518624071215967,
      5.29563236570572, 5.164217624844814, 5.069068132946152, 4.949492557602121,
      4.799556815032774, 4.674733387897625, 4.634745459948758,
      4.634745459948758, 4.634745459948758, 4.511222197715724,
      4.353336431512903, 4.353336431512903, 4.2039948311437305,
      4.117033924807117, 4.117033924807117, 4.117033924807117,
      4.117033924807117, 4.117033924807117, 4.051618586989461,
      3.972985718154874, 3.9195510848548856, 3.823564950855503,
      3.8235109510019245, 3.784076863522385, 3.7504315445865535,
      3.62417685272149, 3.5775208608684212, 3.4610007390085142,
      3.2025016364183494, 3.1962126790636334, 3.061685414873788,
      2.8787840114610117, 2.797059463299869, 2.797059463299869,
      2.7662707937969953, 2.6926807768621153, 2.6926807768621153,
      2.655557070837648, 2.655557070837648, 2.6347354013393454,
      2.62971699472026, 2.626836406851751, 2.596683911065106,
      2.5303084894812566, 2.4836753003848346, 2.4836753003848346,
      2.4589559660975606, 2.4589559660975606, 2.4524050099431354,
      2.4309540909292817, 2.4240220919820414, 2.415480114143714,
      2.383083840851869, 2.383083840851869, 2.383083840851869,
      2.3712665928494867, 2.354255325763435, 2.2778594020495144,
      2.266895963720711, 2.2636867256105297, 2.2598756649620455,
      2.2249878786592667, 2.2185412026603455, 2.2185412026603455,
      2.2163189746775775, 2.1841310989800355, 2.1841310989800355,
      2.1815476222692824, 2.1733509784208422, 2.1733509784208422,
      2.1716410558931853, 2.143830398519997, 2.1427224457504304,
      2.138992578159206, 2.13562854242966, 2.13562854242966, 2.1239389126500767,
      2.1239389126500767, 2.117570455340577, 2.117570455340577,
      2.1160157962634925, 2.1160157962634925, 2.1062640950894402,
      2.0721444715629875, 2.058930863459624, 2.0486314531886043,
      2.0281007268596336, 2.020629584144704, 2.0112825680046487,
      2.0069779023311534, 2.0007594573991323, 2.0007594573991323,
      1.9900020205425184, 1.9855835005590323, 1.9823228933494448,
      1.9798771503175978, 1.974701438742328, 1.967549033420406,
      1.967549033420406, 1.9656777403628831, 1.963839325406066,
      1.9608542132073157, 1.9595222381318866, 1.9573324432375354,
      1.9546250953135156, 1.9524011720270484, 1.9511608776435574,
      1.949096798187518, 1.9471916100488176, 1.946238285977607,
      1.9434023138315344, 1.9429976696995825, 1.9399733599573887,
      1.9376113613488577, 1.9363960074137925, 1.9352484510538999,
      1.9333337474142924, 1.9315716275041304, 1.930626953262324,
      1.9296343715010422, 1.928139749281994, 1.9281054973388796,
      1.9281054973388796, 1.9278763522628357, 1.927833871486445,
      1.9277308501701247, 1.9277111233716784, 1.9276774203806217,
      1.9276774203806217, 1.9276710507583084, 1.9276709270761134,
      1.9276709270761134, 1.9276709270761134, 1.927663877177882,
      1.927641304961868, 1.9276365431181528, 1.9276082810244026,
      1.927597025545655, 1.9275842239047771, 1.9275742051700027,
      1.927571607711746, 1.9275711129573956, 1.92756715491802,
      1.9275640626941029, 1.9275610941544754, 1.9275570124050228,
      1.9275546004581017, 1.9275533635610742, 1.9275508897646376,
      1.9275498384001908, 1.9275483541199954, 1.9275463132328605,
      1.9275448289499506, 1.9275442723435647, 1.927544148653235,
      1.927543777582198, 1.927543777582198
    ],
    [
      21.947206441947657, 21.947206441947657, 21.947206441947657,
      21.947206441947657, 19.786914948364945, 17.798053866519982,
      16.37904086741126, 15.30659962850992, 13.080467606798313,
      11.521228601850314, 9.994709522783753, 8.888621018929992,
      7.524031983019087, 7.148026584842643, 7.148026584842643,
      7.148026584842643, 7.148026584842643, 7.117749188867574,
      7.117749188867574, 7.083946680179556, 6.317136062990102,
      5.3074047112771705, 4.805856453963592, 4.805856453963592,
      4.805856453963592, 4.805856453963592, 4.803194834512351,
      4.803194834512351, 4.803194834512351, 4.803194834512351,
      4.756847465374299, 4.756847465374299, 4.756847465374299,
      4.756847465374299, 4.752257162167886, 4.752257162167886,
      4.752257162167886, 4.752257162167886, 4.752257162167886,
      4.645387819194718, 4.464426576844352, 4.2801380801877915,
      3.846833891536611, 3.846833891536611, 3.846833891536611,
      3.846833891536611, 3.846833891536611, 3.846833891536611,
      3.846833891536611, 3.846833891536611, 3.846833891536611,
      3.846833891536611, 3.7492465215927444, 3.7492465215927444,
      3.5731607841233197, 3.5731607841233197, 3.5731607841233197,
      3.5731607841233197, 3.560790203775726, 3.333506357152887,
      3.3023360162720685, 3.244757899582694, 2.9889188198527443,
      2.9889188198527443, 2.953158585291825, 2.7524136441549394,
      2.7123907849523063, 2.7123907849523063, 2.7123907849523063,
      2.7123907849523063, 2.606152949367248, 2.606152949367248,
      2.606152949367248, 2.606152949367248, 2.5577458265186808,
      2.499120366794495, 2.4331169824789036, 2.4331169824789036,
      2.3884616612708776, 2.375526972080209, 2.3464931456756135,
      2.3464931456756135, 2.335154322358271, 2.335154322358271,
      2.335154322358271, 2.2925448960096126, 2.2925448960096126,
      2.2895769706362294, 2.2895769706362294, 2.2721103845363286,
      2.2717994477986094, 2.250193693512893, 2.247639265317789,
      2.247639265317789, 2.2411256196315166, 2.2411256196315166,
      2.23797722527555, 2.23797722527555, 2.23797722527555, 2.23797722527555,
      2.23797722527555, 2.236366185026838, 2.2271342296393035,
      2.2268608027285866, 2.2268608027285866, 2.2268608027285866,
      2.219286679116789, 2.216177295023689, 2.208319849896804,
      2.208319849896804, 2.198803715139203, 2.198502906851184,
      2.198502906851184, 2.198502906851184, 2.198502906851184,
      2.198502906851184, 2.1805259705282563, 2.1805259705282563,
      2.1747976713234376, 2.1515943603816163, 2.1515943603816163,
      2.145948709392255, 2.1393846691380034, 2.1369133395169464,
      2.1369133395169464, 2.1369133395169464, 2.133735205627534,
      2.127180887713298, 2.124218404306185, 2.123860446332481,
      2.115341000674194, 2.1116331093682734, 2.1072604282821237,
      2.1030671926548825, 2.1025694522885034, 2.0975472476989276,
      2.093919889475249, 2.0909474533316215, 2.0862456247730674,
      2.078781253765552, 2.069790180463662, 2.062902584666087,
      2.062902584666087, 2.0627044807564805, 2.0443043181639253,
      2.0411873339105107, 2.0398747372035975, 2.0292998122046235,
      2.020197214376147, 2.015221015603434, 2.007486398539184,
      1.9990940426283033, 1.9947562617122265, 1.9872771540053655,
      1.9840556811433179, 1.983842733291311, 1.981308798413877,
      1.981308798413877, 1.9809979516124196, 1.9805327335533103,
      1.9795931172622594, 1.9781821027230566, 1.9780600080615738,
      1.9773893775332843, 1.977157322336922, 1.9768030676115125,
      1.9761200058979114, 1.9755923336602466, 1.9752751557100547,
      1.9750006011768826, 1.9748340633555284, 1.974662380091934,
      1.9742540592588071, 1.9738818298921281, 1.973640121000972,
      1.9734626556991979, 1.9733074661870662, 1.9729769908648032,
      1.9727700380045594, 1.9725917087987523, 1.9725666894505327,
      1.972566024680914, 1.9725524270713735, 1.972541851088038,
      1.972444791129979, 1.972373775993116, 1.972321132483994,
      1.9723098904044545, 1.972185739737958, 1.9715182506114155,
      1.9714769520855095, 1.9714240427537797, 1.971385523867102,
      1.97127691711355, 1.9712529696077512, 1.9711730215345902,
      1.9711306876563093, 1.9710833331122757, 1.971030534175826,
      1.9710037410474137
    ],
    [
      17.2020694640981, 17.2020694640981, 17.2020694640981, 17.2020694640981,
      14.890740793424387, 12.637027865230081, 11.383143601481672,
      10.612148995317966, 10.094168734058323, 9.737214924822574,
      9.588450605273286, 9.507032501900238, 9.450865723045643,
      9.422972961523012, 9.31877303859388, 6.532100640348001, 6.532100640348001,
      6.532100640348001, 6.532100640348001, 6.532100640348001,
      6.532100640348001, 6.532100640348001, 6.356252592643276,
      6.000472368083759, 6.000472368083759, 6.000472368083759,
      5.450072212790744, 5.147509570860893, 4.986375556717219, 4.97712740244569,
      4.7903200772882695, 4.152985172486835, 4.152985172486835,
      4.152985172486835, 4.152985172486835, 4.152985172486835,
      4.152985172486835, 4.152985172486835, 4.152985172486835,
      4.152985172486835, 4.152985172486835, 4.152985172486835,
      4.152985172486835, 4.152985172486835, 4.152985172486835,
      4.120142533142294, 4.120142533142294, 4.120142533142294,
      4.120142533142294, 4.092029005945345, 4.092029005945345,
      4.044930834279069, 4.044930834279069, 4.021759453620169,
      3.9371414021278333, 3.688390074815046, 3.6366674827297376,
      3.6366674827297376, 3.5117150838151745, 3.4709734964328742,
      3.3508732582742633, 3.3508732582742633, 3.311682402277901,
      3.272702519246132, 3.2339534761270756, 3.2339534761270756,
      3.215642669896104, 3.180802583240174, 3.180802583240174,
      3.1583545580094583, 3.1583545580094583, 3.060258005771678,
      3.060258005771678, 3.0208992961828804, 3.0208992961828804,
      3.016134900878177, 3.0078900215760838, 2.9831967249730846,
      2.9497546789030524, 2.9491700831559924, 2.908618741026719,
      2.898792831150527, 2.8870596677918914, 2.8870596677918914,
      2.8837439213470826, 2.865631096853179, 2.8151453928556265,
      2.7816629853251853, 2.7816629853251853, 2.773001021304185,
      2.734623227432694, 2.7236533836115853, 2.7236533836115853,
      2.7236533836115853, 2.6878448087703903, 2.6878448087703903,
      2.6878448087703903, 2.675903673921566, 2.669397376557748,
      2.669397376557748, 2.6538527498195164, 2.624862939798623,
      2.624862939798623, 2.6133638149384666, 2.6133638149384666,
      2.6133638149384666, 2.5816290884154114, 2.5770936694872066,
      2.568619561886274, 2.528809960823993, 2.5211007367850873,
      2.493363823304772, 2.448620785570089, 2.416037927153027,
      2.3962753441017073, 2.38582493204851, 2.3606196272195277,
      2.3207876829888896, 2.297907175671047, 2.295922633359583,
      2.278114567904141, 2.278114567904141, 2.276654042515678,
      2.271108791431421, 2.2695354520722715, 2.2695354520722715,
      2.2695354520722715, 2.2673966419758713, 2.2673966419758713,
      2.2673966419758713, 2.2673966419758713, 2.2673966419758713,
      2.2673966419758713, 2.2673966419758713, 2.266852210902916,
      2.2657673758133354, 2.2637595027258617, 2.2587277362446128,
      2.25441182249501, 2.249523006317323, 2.2456073267448553,
      2.2426574427218053, 2.240037904486796, 2.239316584351934,
      2.234215470601143, 2.225860270807652, 2.222640910707449,
      2.216511416436174, 2.210450998435748, 2.203062232455825,
      2.1982685428159656, 2.190636048989722, 2.1833885792544576,
      2.1772556753860988, 2.163937451437007, 2.1505918486616724,
      2.1396226972792767, 2.1276729826301795, 2.1155710278251574,
      2.111190353824829, 2.108405448474332, 2.0975088284366943,
      2.0877373748861667, 2.07964527479908, 2.0670528445859313,
      2.0534050133607993, 2.0457210636863854, 2.043719706179582,
      2.0437113067043904, 2.042512861045585, 2.038946389586581,
      2.0378340605244682, 2.0363763530910055, 2.035087950396943,
      2.034859721717114, 2.0320474086472466, 2.0304449980499846,
      2.029876361896503, 2.02951010500734, 2.0290757500283294,
      2.0284318594824016, 2.027972937762634, 2.027379735726505,
      2.0270263188163278, 2.026685545398387, 2.02629400281999,
      2.025996883521738, 2.0255983810770877, 2.0253868581208945,
      2.0252129854823075, 2.024912764000648, 2.024712120597683,
      2.0245295931894773, 2.024311363018496, 2.0240796811775015,
      2.0238492686645837, 2.0236603014024888, 2.0234464549451943,
      2.023331569417387, 2.023331569417387
    ],
    [
      11.56523405175507, 11.56523405175507, 11.56523405175507,
      11.56523405175507, 11.56523405175507, 11.3173810850401, 9.57664132256169,
      8.627341574554874, 8.05011880917275, 7.722807153858845, 7.679603552917329,
      7.636534924258126, 7.636534924258126, 7.636534924258126,
      7.636534924258126, 7.596934212156119, 7.209105551338654,
      6.965847351714835, 6.965847351714835, 6.965847351714835,
      6.335248690979897, 6.335248690979897, 5.587666533375807,
      5.587666533375807, 5.587666533375807, 5.587666533375807,
      5.587666533375807, 5.587666533375807, 5.2875895174714005,
      5.127777277509161, 5.110311346553733, 5.110311346553733,
      5.110311346553733, 5.110311346553733, 5.110311346553733,
      5.110311346553733, 5.008534776610871, 5.008534776610871,
      5.008534776610871, 5.008534776610871, 5.008534776610871,
      4.9954771566593195, 4.79098954875955, 4.71703383203973,
      4.6976336995212735, 4.5574212221168215, 4.5574212221168215,
      4.5574212221168215, 4.387358947399357, 4.387358947399357,
      4.387358947399357, 4.275791447420121, 4.235638081695183,
      4.235638081695183, 4.226910645536132, 4.224240947006828,
      4.224240947006828, 4.198260246711856, 4.139223718149528,
      4.032243000125432, 4.032243000125432, 4.032243000125432,
      4.021603657091465, 4.021603657091465, 4.021603657091465,
      4.010437698639385, 4.010437698639385, 4.010437698639385,
      4.010437698639385, 4.010437698639385, 4.010437698639385,
      4.010437698639385, 3.9727347487174365, 3.9727347487174365,
      3.9727347487174365, 3.9631383676488476, 3.9631383676488476,
      3.9631383676488476, 3.857376384225433, 3.857376384225433,
      3.8528989751874483, 3.843855073314549, 3.8411433367532495,
      3.8379670346639876, 3.8379670346639876, 3.8379670346639876,
      3.8375927991550203, 3.8317752795418096, 3.8317752795418096,
      3.827145198072117, 3.8243938090358576, 3.8149981209486588,
      3.8149981209486588, 3.8069156960325796, 3.7780935180463064,
      3.7709464939623776, 3.7709464939623776, 3.752755869071955,
      3.752755869071955, 3.712394476524365, 3.712394476524365,
      3.6836821625375293, 3.591178969501689, 3.551808023084739,
      3.4934897501582065, 3.400389643389074, 3.3510326331225055,
      3.3377327655675586, 3.2537519365701324, 3.2531738922519926,
      3.1543741222642647, 3.0520887320582495, 3.0263720718841673,
      2.9389310556939017, 2.8670454691703164, 2.769520747456726,
      2.7585059312677496, 2.753402598974548, 2.695859637910864,
      2.695859637910864, 2.6805212208641307, 2.6612982854229927,
      2.639556488004972, 2.639556488004972, 2.639556488004972,
      2.6387798476417217, 2.6314930312035227, 2.6255728686886495,
      2.6168356587778434, 2.6017314867460817, 2.599132514167447,
      2.5926946308350676, 2.590411692121578, 2.578535659913312,
      2.578535659913312, 2.578535659913312, 2.5778763159830986,
      2.5778763159830986, 2.5778763159830986, 2.5778763159830986,
      2.5773790609733935, 2.5772607452911607, 2.575921614076258,
      2.5757699093208886, 2.5757699093208886, 2.5747600443616605,
      2.5671985628304124, 2.5630667455155693, 2.5602076441775052,
      2.5598297162344497, 2.55790959886402, 2.5569665291646486,
      2.5569665291646486, 2.550354622510666, 2.54545947096088,
      2.542726848013447, 2.541119865842008, 2.5380202751281695,
      2.534275836627355, 2.532066307778551, 2.5288268370558638,
      2.525219267587619, 2.5224459090543894, 2.5200806011449495,
      2.5186998991799134, 2.517913914342884, 2.51652832872077,
      2.515667837974741, 2.5128177119308823, 2.508228113073433,
      2.499134199901036, 2.4950908144398767, 2.4950908144398767,
      2.488488300997302, 2.48188849240634, 2.4766207426424747,
      2.472230606445878, 2.470551135548624, 2.468427516300359,
      2.4676332482996766, 2.4673595134160777, 2.466595349268889,
      2.4660096229928543, 2.46542897962167, 2.4646518348424364,
      2.4628224737795286, 2.4614907263519696, 2.4596767526400756,
      2.4580073275165892, 2.455729857060702, 2.45398429836358, 2.45296677000147,
      2.452529057321861, 2.4508351128848544, 2.4492260508451293,
      2.4475794025512663, 2.446207096150504, 2.4449618639633934,
      2.44368711815052, 2.4419274834215594
    ]
  ]
}
