{
  "pso_type": "rpso",
  "pso_runs": 9,
  "min_best_fitness": 1.7140624888723508,
  "mean_best_fitness": 2.5799057505389973,
  "max_best_fitness": 3.838498754101882,
  "averages": [
    15.879582285012507, 11.705063499463268, 9.061377841157114,
    7.281424913276236, 6.257596542513084, 5.8767979002259185,
    5.4676345117113145, 5.210728119874926, 5.103625776751873, 4.950128304501746,
    4.806686365753629, 4.671158076769712, 4.579839521798086, 4.502762315831397,
    4.446146255048333, 4.361501016594378, 4.289029850864619, 4.173151470606999,
    4.164333787071298, 4.159995729368087, 4.099314736994354, 4.035376913892204,
    4.003180823069101, 3.9720097978326145, 3.9347507691220023,
    3.9072282646568093, 3.8887496398687236, 3.8659777110996973,
    3.856558889482192, 3.839240855491214, 3.8081088620291244, 3.792326719809028,
    3.7462298411059205, 3.7303756027162285, 3.6888190372900826,
    3.6888190372900826, 3.676538484508898, 3.6741645637207685,
    3.6666362310706453, 3.654207553481062, 3.642139488548611,
    3.6303478600969026, 3.6303478600969026, 3.6206399427095857,
    3.6119699264309606, 3.6101719598974, 3.5866203163327373, 3.568266079025734,
    3.536412978038376, 3.532272965132672, 3.520253670891992, 3.5200309880202543,
    3.515782333724481, 3.4965646924625906, 3.4917895328266857,
    3.480214756719925, 3.470578145982148, 3.4632387508490248, 3.462413892128013,
    3.4583005629131915, 3.4231388889140253, 3.423097276869039,
    3.4217088458429354, 3.4015518462792538, 3.398352153340958,
    3.3776736768111553, 3.361185229847905, 3.3507084453500946,
    3.349958451639295, 3.312670834447037, 3.3096613929525187, 3.273909702353615,
    3.2727319391033345, 3.266225115356418, 3.263908144034067, 3.249843684977424,
    3.234559256090448, 3.214717798343394, 3.206553741764178, 3.19338269628143,
    3.1819970912404525, 3.158344855781058, 3.142969739916419,
    3.1348207087235385, 3.1192643333354906, 3.113349217312328,
    3.0909714078415327, 3.0811059395539613, 3.067786987730376,
    3.042681247847935, 2.975308686446566, 2.948675555750758, 2.9419577533951813,
    2.928722931777186, 2.9129651407045833, 2.899792271968631,
    2.8907583839383975, 2.8757087179973535, 2.868376976522863,
    2.8652742512531955, 2.8605319674485394, 2.8535300569472897,
    2.8486673948344277, 2.840112843539957, 2.8344476049084615,
    2.830991730526941, 2.82693130537986, 2.8231435068976825, 2.8177792603985634,
    2.8141327006192656, 2.8088914875867257, 2.8022993610970346,
    2.7958186687345314, 2.7829460906470924, 2.7748142173636277,
    2.767055233690497, 2.761216974124546, 2.7543857614334533,
    2.7464933905084417, 2.74005962955831, 2.7316260574691764,
    2.7227581637735887, 2.7137169850201435, 2.7080951423622484,
    2.6986183657362415, 2.6910795650839185, 2.6845081290472397,
    2.681164514362008, 2.674548499088178, 2.6692075321708053,
    2.6644729506363336, 2.6601545404857925, 2.6546383857211406,
    2.648955440070529, 2.6459538351552423, 2.6420356959537052,
    2.637511688187346, 2.6343804558145165, 2.631679496315975,
    2.6286672264510065, 2.62541146858226, 2.6231990592327943, 2.619840371345982,
    2.6181330442820046, 2.616519705364173, 2.614828548475772,
    2.6122956617390947, 2.610697285971138, 2.608672433372274, 2.60788683819134,
    2.606652705769628, 2.6059055375820073, 2.6038804808073044,
    2.6023997138825203, 2.6002531577413546, 2.5976278543862357,
    2.5954149382062113, 2.592626612002485, 2.5912220740134897,
    2.5896311492423014, 2.5887856061085097, 2.5877676262250913,
    2.5866272577683107, 2.58553027001201, 2.5846435128314713,
    2.5840070625493823, 2.583420075677059, 2.583074228140766, 2.582702643874695,
    2.582363451852044, 2.582111050391003, 2.581916848415742, 2.581693287882921,
    2.581430387367744, 2.581240889169494, 2.5810691099662213,
    2.5808852840636884, 2.580738358726547, 2.580604431758076,
    2.5805040657678013, 2.580421626291822, 2.5803635407882424,
    2.5802997794907685, 2.580240973775378, 2.5801644367775207,
    2.5801213276786563, 2.58009335028673, 2.5800758562450117, 2.580062338132635,
    2.58005220062613, 2.5800423624469855, 2.580032037474355, 2.5800208840917587,
    2.5800093247379348, 2.5799988125080597, 2.579986116061072,
    2.5799521668187904, 2.5799300412745745, 2.5799186410497708,
    2.5799057505389973
  ],
  "position_bounds": [
    [-4.0, 4.0],
    [-4.0, 4.0],
    [-4.0, 4.0],
    [-4.0, 4.0],
    [-4.0, 4.0],
    [-4.0, 4.0],
    [-4.0, 4.0],
    [-4.0, 4.0],
    [-4.0, 4.0],
    [-4.0, 4.0],
    [-4.0, 4.0],
    [-4.0, 4.0],
    [-4.0, 4.0],
    [-4.0, 4.0],
    [-4.0, 4.0],
    [-4.0, 4.0],
    [-4.0, 4.0],
    [-4.0, 4.0],
    [-4.0, 4.0],
    [-4.0, 4.0],
    [-4.0, 4.0],
    [-4.0, 4.0],
    [-4.0, 4.0],
    [-4.0, 4.0],
    [-4.0, 4.0],
    [-4.0, 4.0],
    [-4.0, 4.0],
    [-4.0, 4.0],
    [-4.0, 4.0],
    [-4.0, 4.0],
    [-4.0, 4.0],
    [-4.0, 4.0],
    [-4.0, 4.0],
    [-4.0, 4.0],
    [-4.0, 4.0],
    [-4.0, 4.0],
    [-4.0, 4.0],
    [-4.0, 4.0],
    [-4.0, 4.0],
    [-4.0, 4.0],
    [-4.0, 4.0],
    [-4.0, 4.0],
    [-4.0, 4.0],
    [-4.0, 4.0],
    [-4.0, 4.0],
    [-4.0, 4.0],
    [-4.0, 4.0],
    [-4.0, 4.0],
    [-4.0, 4.0],
    [-4.0, 4.0],
    [-4.0, 4.0],
    [-4.0, 4.0],
    [-4.0, 4.0],
    [-4.0, 4.0],
    [-4.0, 4.0],
    [-4.0, 4.0],
    [-4.0, 4.0],
    [-4.0, 4.0],
    [-4.0, 4.0],
    [-4.0, 4.0],
    [-4.0, 4.0],
    [-4.0, 4.0],
    [-4.0, 4.0],
    [-4.0, 4.0],
    [-4.0, 4.0],
    [-4.0, 4.0],
    [-4.0, 4.0],
    [-4.0, 4.0],
    [-4.0, 4.0],
    [-4.0, 4.0],
    [-4.0, 4.0],
    [-4.0, 4.0],
    [-4.0, 4.0],
    [-4.0, 4.0],
    [-4.0, 4.0],
    [-4.0, 4.0],
    [-4.0, 4.0],
    [-4.0, 4.0],
    [-4.0, 4.0],
    [-4.0, 4.0],
    [-4.0, 4.0],
    [-4.0, 4.0],
    [-4.0, 4.0],
    [-4.0, 4.0],
    [-4.0, 4.0],
    [-4.0, 4.0],
    [-4.0, 4.0],
    [-4.0, 4.0],
    [-4.0, 4.0],
    [-4.0, 4.0],
    [-4.0, 4.0],
    [-4.0, 4.0],
    [-4.0, 4.0],
    [-4.0, 4.0],
    [-4.0, 4.0],
    [-4.0, 4.0],
    [-4.0, 4.0],
    [-4.0, 4.0],
    [-4.0, 4.0],
    [-4.0, 4.0],
    [-4.0, 4.0],
    [-4.0, 4.0],
    [-4.0, 4.0],
    [-4.0, 4.0],
    [-4.0, 4.0],
    [-4.0, 4.0],
    [-4.0, 4.0],
    [-4.0, 4.0],
    [-4.0, 4.0],
    [-4.0, 4.0],
    [-4.0, 4.0],
    [-4.0, 4.0],
    [-4.0, 4.0],
    [-4.0, 4.0],
    [-4.0, 4.0],
    [-4.0, 4.0],
    [-4.0, 4.0],
    [-4.0, 4.0],
    [-4.0, 4.0],
    [-4.0, 4.0],
    [-4.0, 4.0],
    [-4.0, 4.0],
    [-4.0, 4.0],
    [-4.0, 4.0],
    [-4.0, 4.0],
    [-4.0, 4.0],
    [-4.0, 4.0],
    [-4.0, 4.0],
    [-4.0, 4.0],
    [-4.0, 4.0],
    [-4.0, 4.0],
    [-4.0, 4.0],
    [-4.0, 4.0],
    [-4.0, 4.0],
    [-4.0, 4.0],
    [-4.0, 4.0],
    [-4.0, 4.0],
    [-4.0, 4.0],
    [-4.0, 4.0],
    [-4.0, 4.0]
  ],
  "velocity_bounds": [
    [-0.4555071194724097, 0.4555071194724097],
    [-0.4555071194724097, 0.4555071194724097],
    [-0.4555071194724097, 0.4555071194724097],
    [-0.4555071194724097, 0.4555071194724097],
    [-0.4555071194724097, 0.4555071194724097],
    [-0.4555071194724097, 0.4555071194724097],
    [-0.4555071194724097, 0.4555071194724097],
    [-0.4555071194724097, 0.4555071194724097],
    [-0.4555071194724097, 0.4555071194724097],
    [-0.4555071194724097, 0.4555071194724097],
    [-0.4555071194724097, 0.4555071194724097],
    [-0.4555071194724097, 0.4555071194724097],
    [-0.4555071194724097, 0.4555071194724097],
    [-0.4555071194724097, 0.4555071194724097],
    [-0.4555071194724097, 0.4555071194724097],
    [-0.4555071194724097, 0.4555071194724097],
    [-0.4555071194724097, 0.4555071194724097],
    [-0.4555071194724097, 0.4555071194724097],
    [-0.4555071194724097, 0.4555071194724097],
    [-0.4555071194724097, 0.4555071194724097],
    [-0.4555071194724097, 0.4555071194724097],
    [-0.4555071194724097, 0.4555071194724097],
    [-0.4555071194724097, 0.4555071194724097],
    [-0.4555071194724097, 0.4555071194724097],
    [-0.4555071194724097, 0.4555071194724097],
    [-0.4555071194724097, 0.4555071194724097],
    [-0.4555071194724097, 0.4555071194724097],
    [-0.4555071194724097, 0.4555071194724097],
    [-0.4555071194724097, 0.4555071194724097],
    [-0.4555071194724097, 0.4555071194724097],
    [-0.4555071194724097, 0.4555071194724097],
    [-0.4555071194724097, 0.4555071194724097],
    [-0.4555071194724097, 0.4555071194724097],
    [-0.4555071194724097, 0.4555071194724097],
    [-0.4555071194724097, 0.4555071194724097],
    [-0.4555071194724097, 0.4555071194724097],
    [-0.4555071194724097, 0.4555071194724097],
    [-0.4555071194724097, 0.4555071194724097],
    [-0.4555071194724097, 0.4555071194724097],
    [-0.4555071194724097, 0.4555071194724097],
    [-0.4555071194724097, 0.4555071194724097],
    [-0.4555071194724097, 0.4555071194724097],
    [-0.4555071194724097, 0.4555071194724097],
    [-0.4555071194724097, 0.4555071194724097],
    [-0.4555071194724097, 0.4555071194724097],
    [-0.4555071194724097, 0.4555071194724097],
    [-0.4555071194724097, 0.4555071194724097],
    [-0.4555071194724097, 0.4555071194724097],
    [-0.4555071194724097, 0.4555071194724097],
    [-0.4555071194724097, 0.4555071194724097],
    [-0.4555071194724097, 0.4555071194724097],
    [-0.4555071194724097, 0.4555071194724097],
    [-0.4555071194724097, 0.4555071194724097],
    [-0.4555071194724097, 0.4555071194724097],
    [-0.4555071194724097, 0.4555071194724097],
    [-0.4555071194724097, 0.4555071194724097],
    [-0.4555071194724097, 0.4555071194724097],
    [-0.4555071194724097, 0.4555071194724097],
    [-0.4555071194724097, 0.4555071194724097],
    [-0.4555071194724097, 0.4555071194724097],
    [-0.4555071194724097, 0.4555071194724097],
    [-0.4555071194724097, 0.4555071194724097],
    [-0.4555071194724097, 0.4555071194724097],
    [-0.4555071194724097, 0.4555071194724097],
    [-0.4555071194724097, 0.4555071194724097],
    [-0.4555071194724097, 0.4555071194724097],
    [-0.4555071194724097, 0.4555071194724097],
    [-0.4555071194724097, 0.4555071194724097],
    [-0.4555071194724097, 0.4555071194724097],
    [-0.4555071194724097, 0.4555071194724097],
    [-0.4555071194724097, 0.4555071194724097],
    [-0.4555071194724097, 0.4555071194724097],
    [-0.4555071194724097, 0.4555071194724097],
    [-0.4555071194724097, 0.4555071194724097],
    [-0.4555071194724097, 0.4555071194724097],
    [-0.4555071194724097, 0.4555071194724097],
    [-0.4555071194724097, 0.4555071194724097],
    [-0.4555071194724097, 0.4555071194724097],
    [-0.4555071194724097, 0.4555071194724097],
    [-0.4555071194724097, 0.4555071194724097],
    [-0.4555071194724097, 0.4555071194724097],
    [-0.4555071194724097, 0.4555071194724097],
    [-0.4555071194724097, 0.4555071194724097],
    [-0.4555071194724097, 0.4555071194724097],
    [-0.4555071194724097, 0.4555071194724097],
    [-0.4555071194724097, 0.4555071194724097],
    [-0.4555071194724097, 0.4555071194724097],
    [-0.4555071194724097, 0.4555071194724097],
    [-0.4555071194724097, 0.4555071194724097],
    [-0.4555071194724097, 0.4555071194724097],
    [-0.4555071194724097, 0.4555071194724097],
    [-0.4555071194724097, 0.4555071194724097],
    [-0.4555071194724097, 0.4555071194724097],
    [-0.4555071194724097, 0.4555071194724097],
    [-0.4555071194724097, 0.4555071194724097],
    [-0.4555071194724097, 0.4555071194724097],
    [-0.4555071194724097, 0.4555071194724097],
    [-0.4555071194724097, 0.4555071194724097],
    [-0.4555071194724097, 0.4555071194724097],
    [-0.4555071194724097, 0.4555071194724097],
    [-0.4555071194724097, 0.4555071194724097],
    [-0.4555071194724097, 0.4555071194724097],
    [-0.4555071194724097, 0.4555071194724097],
    [-0.4555071194724097, 0.4555071194724097],
    [-0.4555071194724097, 0.4555071194724097],
    [-0.4555071194724097, 0.4555071194724097],
    [-0.4555071194724097, 0.4555071194724097],
    [-0.4555071194724097, 0.4555071194724097],
    [-0.4555071194724097, 0.4555071194724097],
    [-0.4555071194724097, 0.4555071194724097],
    [-0.4555071194724097, 0.4555071194724097],
    [-0.4555071194724097, 0.4555071194724097],
    [-0.4555071194724097, 0.4555071194724097],
    [-0.4555071194724097, 0.4555071194724097],
    [-0.4555071194724097, 0.4555071194724097],
    [-0.4555071194724097, 0.4555071194724097],
    [-0.4555071194724097, 0.4555071194724097],
    [-0.4555071194724097, 0.4555071194724097],
    [-0.4555071194724097, 0.4555071194724097],
    [-0.4555071194724097, 0.4555071194724097],
    [-0.4555071194724097, 0.4555071194724097],
    [-0.4555071194724097, 0.4555071194724097],
    [-0.4555071194724097, 0.4555071194724097],
    [-0.4555071194724097, 0.4555071194724097],
    [-0.4555071194724097, 0.4555071194724097],
    [-0.4555071194724097, 0.4555071194724097],
    [-0.4555071194724097, 0.4555071194724097],
    [-0.4555071194724097, 0.4555071194724097],
    [-0.4555071194724097, 0.4555071194724097],
    [-0.4555071194724097, 0.4555071194724097],
    [-0.4555071194724097, 0.4555071194724097],
    [-0.4555071194724097, 0.4555071194724097],
    [-0.4555071194724097, 0.4555071194724097],
    [-0.4555071194724097, 0.4555071194724097],
    [-0.4555071194724097, 0.4555071194724097],
    [-0.4555071194724097, 0.4555071194724097],
    [-0.4555071194724097, 0.4555071194724097],
    [-0.4555071194724097, 0.4555071194724097],
    [-0.4555071194724097, 0.4555071194724097],
    [-0.4555071194724097, 0.4555071194724097]
  ],
  "fitness_threshold": 0.1,
  "num_particles": 30,
  "Cp_min": 0.49223779537770773,
  "Cp_max": 2.705723438903796,
  "Cg_min": 0.8806250495947053,
  "Cg_max": 1.5003581183916965,
  "w_min": 0.2865600017421221,
  "w_max": 1.271924256001701,
  "gwn_std_dev": 0.29926592270207925,
  "iterations": 200,
  "elapsed_time": 748.0910649299622,
  "best_weights": [
    -1.1745702859234244, -0.07157149216136663, -0.3228793810369376,
    0.12769296289301738, 1.3648821907406576, -0.39855062678367104,
    -1.7838125817345787, 1.0534076416515543, -1.8741177819336827,
    0.6626581335987712, -1.3552964285032976, 0.8690084793330124,
    -1.0576004823118863, 0.9365327714986347, 1.040183892616043,
    -0.5517275807611712, -1.5481577003372613, 0.6550311205022533,
    0.6053567027225534, 2.32717157435207, -0.36191840151728477,
    -1.6002580156013735, 1.4114592926606935, 1.788945692476422,
    0.7761407164222077, -2.0517023539890213, -1.0351539652540025,
    1.06395332983886, 3.2429240327257616, -3.913890944463427,
    -0.8887275142051435, -1.1439686208104312, -1.1978157047243412,
    -2.073527447766709, -0.5828659114397389, 0.8946674167371538,
    -0.678971629837846, 0.9640248800645311, -0.7812475882107962,
    -1.2274306329029525, 0.581809444334114, 1.5977636450417891,
    -0.9634545033812272, -2.0430667589696947, -0.7278157147613789,
    -1.9872107728806623, -1.341593576416089, 1.7800277096558237,
    -1.453425010756061, 1.1850685940588737, 1.3754697240708746,
    0.2724822205129612, -0.05092551971288565, -0.0885719943317966,
    -1.0634556423236907, 1.7078803364665527, 0.4760981656853558,
    1.2582991139341895, 3.008641746427033, -3.2606442275242657,
    1.1284226940797664, -1.1585640101204808, 0.6511983948643956,
    2.1172540124829693, -2.4073644718382723, -0.31077581041052466,
    -3.2669884870357784, 0.1382840731195785, 0.8407366455873425,
    -0.25835347081002913, -0.9450308858747398, -0.8223097135401092,
    0.18568003489752807, 1.170555953894661, -0.7787610934989764,
    -2.1062299064902312, 1.2804823247974662, -0.4635930964206221,
    -0.9851579450541833, 0.0033768381419166846, -1.3870864124739384,
    -1.5095815352666022, 0.1598384353623186, 0.05562476429565772,
    -1.7601928622319793, -1.4938400967591647, 0.02755276388250552,
    1.7461857345522949, 1.4258847640998755, -0.1483846844060527,
    0.7759345856766358, 0.40272678658796124, 0.27500417368428204,
    -0.3164566705081583, 1.2978163277555874, -2.247268862208679,
    0.6074456824186114, 0.09862274120345171, 0.6486393811268306,
    0.5136488196726172, -0.4872957025512356, 0.5695204348754089,
    0.6936392115647322, -0.569939392816626, -1.2052311831183813,
    -0.7949703908340464, 2.1341058585521733, -1.8698510624658997,
    -0.14523389737039671, 0.40988048601707877, -0.3491485606252317,
    -0.8610181950523681, -0.9373383559779046, 0.6153950699218513,
    -0.2498845201898317, -2.5070695419892526, -2.294963247577567,
    -1.6781976297924501, 0.602109493606503, -1.7098482178324113,
    -0.5986348809787343, -0.6584631087353984, 3.4447743078515405,
    -1.277346884725506, 0.011652862166576471, -2.177104915931615,
    1.8860907496340564, 2.058177598456105, -0.5091143630586303,
    0.9616432598848311, 2.3074987376926472, 0.0902677570479219,
    -1.315894492192237, 2.6581612142584925, -2.2277057724280565,
    0.23678025113956552, -0.8759787092476323, -1.7076335851557671,
    -1.1298406913668528, -0.8919324282443463
  ],
  "fitness_histories": [
    [
      14.931983854990706, 8.76079438461557, 8.218948651948093,
      8.218948651948093, 6.793631084282262, 5.87678922638273, 5.088734035181103,
      5.088734035181103, 4.56252759115159, 4.56252759115159, 4.56252759115159,
      4.56252759115159, 4.457082174747418, 4.457082174747418, 4.410608395154264,
      4.323654565301075, 4.323654565301075, 4.323654565301075,
      4.323654565301075, 4.323654565301075, 4.323654565301075,
      4.244782779738908, 4.244782779738908, 4.1428373364505955,
      4.1428373364505955, 4.1428373364505955, 4.1428373364505955,
      4.1428373364505955, 4.1428373364505955, 4.1428373364505955,
      4.1107836727532625, 4.1107836727532625, 4.1107836727532625,
      4.1107836727532625, 4.089126655212353, 4.089126655212353,
      4.083219539587809, 4.083219539587809, 4.083219539587809,
      4.083219539587809, 4.049836831279175, 4.049836831279175,
      4.049836831279175, 4.049836831279175, 4.049836831279175,
      4.046155003895891, 4.046155003895891, 4.046155003895891,
      4.046155003895891, 4.038888245001988, 4.038888245001988,
      4.038888245001988, 4.038888245001988, 4.038888245001988,
      4.038888245001988, 4.038888245001988, 4.038888245001988,
      4.038888245001988, 4.038888245001988, 4.038888245001988,
      4.038888245001988, 4.038513736597115, 4.038513736597115,
      4.038513736597115, 4.038513736597115, 4.038513736597115,
      4.038513736597115, 4.038513736597115, 4.0378059483871995,
      4.0378059483871995, 4.037787525816297, 4.037787525816297,
      4.037787525816297, 4.037787525816297, 4.037253943347653,
      4.037253943347653, 4.037253943347653, 4.037253943347653,
      4.037253943347653, 4.037253943347653, 4.037253943347653,
      4.035282926980616, 4.035282926980616, 4.0348246494466435,
      4.0348246494466435, 4.032728293780164, 4.032728293780164,
      4.032728293780164, 4.032728293780164, 4.031614065364628,
      4.031314346627924, 4.031314346627924, 4.031314346627924,
      4.0166180640692515, 4.0166180640692515, 4.0072661207730285,
      4.0072661207730285, 4.002535969788794, 3.9995411371251266,
      3.9951199326637474, 3.9895473043675795, 3.985595276907041,
      3.985595276907041, 3.985595276907041, 3.982981479273209,
      3.982981479273209, 3.9797440487783406, 3.9788540755648065,
      3.97737985540999, 3.973353681981595, 3.973353681981595,
      3.9684497389261844, 3.9684497389261844, 3.962503639002913,
      3.9526346377484485, 3.9480128347851062, 3.9348686750860367,
      3.9244687443700084, 3.9151690169642084, 3.9049508337620744,
      3.8916264359697568, 3.889588122100143, 3.889370022635238,
      3.8853581946560927, 3.882149407547573, 3.8780128087761314,
      3.8728434806969108, 3.870755116329792, 3.8657775158041336,
      3.862088257407877, 3.862088257407877, 3.8617430306299694,
      3.8600172983285965, 3.8593918031643315, 3.858712328648783,
      3.8581940237866608, 3.8581940237866608, 3.8579559806262314,
      3.8568285985617874, 3.856265649501015, 3.8550076503653012,
      3.85155544319048, 3.84992968012016, 3.8486946370081827, 3.848562809603462,
      3.8479809309393733, 3.8477478326267547, 3.847684133980498,
      3.847360543443403, 3.8472986974968855, 3.8470893558430403,
      3.846951027931563, 3.8468487661971684, 3.8453215820998876,
      3.8433170229810267, 3.8430439370329, 3.8429018651109277,
      3.8427731893265484, 3.842346431366231, 3.842055032315114,
      3.841788683185852, 3.8415303838447565, 3.8412085093756625,
      3.8408527154668635, 3.840416059405332, 3.8402284446952226,
      3.8399156503552603, 3.8396892652354633, 3.8394135615458294,
      3.83920701918949, 3.8389968636677065, 3.838849300788271,
      3.8388053289343276, 3.838779492129859, 3.8387591206806513,
      3.838731668739684, 3.838715893101074, 3.838690925225575,
      3.838675149419523, 3.838658007131572, 3.838644342934173,
      3.8386267036256077, 3.8386083189078786, 3.838596642081977,
      3.838583226110495, 3.8385737852135664, 3.8385658349665643,
      3.8385555244654594, 3.838548195297231, 3.8385403692207922,
      3.838531300890042, 3.8385196238298502, 3.838508567857143,
      3.838500865924753, 3.8384992510014855, 3.838499002551692,
      3.838498754101882, 3.838498754101882, 3.838498754101882, 3.838498754101882
    ],
    [
      28.042068486124, 13.125580111807796, 6.907195013646493, 6.907195013646493,
      5.878531835045595, 5.591114638131517, 5.591114638131517,
      5.591114638131517, 5.591114638131517, 5.591114638131517,
      5.397425511152284, 5.108833307604837, 4.899587006583617,
      4.899587006583617, 4.899587006583617, 4.835557272511845,
      4.632236901690036, 4.632236901690036, 4.632236901690036,
      4.632236901690036, 4.483658470833952, 4.422606283046103,
      4.422606283046103, 4.404036811543105, 4.254328374874776,
      4.254328374874776, 4.171357654969056, 4.171357654969056,
      4.120655199192221, 4.044446769010367, 4.044446769010367,
      4.027081367240909, 3.9937577416191226, 3.9484687492966644,
      3.8063439869669087, 3.8063439869669087, 3.8063439869669087,
      3.8063439869669087, 3.8063439869669087, 3.8063439869669087,
      3.8063439869669087, 3.8063439869669087, 3.8063439869669087,
      3.8058894645928985, 3.8058894645928985, 3.8058894645928985,
      3.788135533156901, 3.788135533156901, 3.708743826330978,
      3.708743826330978, 3.708743826330978, 3.708743826330978,
      3.708743826330978, 3.665084728807226, 3.665084728807226,
      3.665084728807226, 3.665084728807226, 3.6354922019886406,
      3.6354922019886406, 3.6354922019886406, 3.6354922019886406,
      3.6354922019886406, 3.6354922019886406, 3.6354922019886406,
      3.6354922019886406, 3.6354922019886406, 3.6354922019886406,
      3.6354922019886406, 3.6354922019886406, 3.6354922019886406,
      3.6354922019886406, 3.6354922019886406, 3.6354922019886406,
      3.6354922019886406, 3.6151730425561253, 3.566897305194421,
      3.457420887514335, 3.369056979260576, 3.369056979260576,
      3.369056979260576, 3.293405162269928, 3.293405162269928,
      3.1938588163049366, 3.1938588163049366, 3.189443855716016,
      3.1546566406675405, 2.9915125312166535, 2.9915125312166535,
      2.93723360842252, 2.782892406586529, 2.232917149989731, 2.06941174759377,
      2.06941174759377, 2.0088800939130165, 1.914550283130833,
      1.9097747109646244, 1.9097747109646244, 1.9097747109646244,
      1.9097747109646244, 1.9097747109646244, 1.909369620707375,
      1.909369620707375, 1.909369620707375, 1.909369620707375,
      1.908374040771931, 1.908374040771931, 1.907383191093178,
      1.9058063803855922, 1.896982836603957, 1.8852672482571469,
      1.8852672482571469, 1.8775332821513278, 1.8775332821513278,
      1.874276848258671, 1.873774700345543, 1.8691873096148746,
      1.8620570737817108, 1.8589296208233814, 1.852007977297515,
      1.852007977297515, 1.8455999759330135, 1.8420824171384844,
      1.8365752066302008, 1.8345324395119602, 1.826273967316714,
      1.8194949561266949, 1.8191415188365114, 1.8167885654860634,
      1.8164487115962678, 1.8163075410007232, 1.8140860885413912,
      1.8125509057624354, 1.8114063646679601, 1.80742658684988,
      1.8040202174608033, 1.8005130592938285, 1.7958189805143938,
      1.7932629312761381, 1.7923940098921853, 1.7913856581691017,
      1.7896699498819602, 1.7887856215069717, 1.7878998555934227,
      1.7872373774812864, 1.7860282921595299, 1.7849790789876798,
      1.7849329969509011, 1.7848138459959932, 1.7847311569696096,
      1.7847117866115363, 1.7847113858432873, 1.7843842621410912,
      1.784218974064593, 1.783958250104653, 1.7836712225965898,
      1.7830153969160358, 1.7825870515130318, 1.782352240324762,
      1.7822697715224443, 1.782105692069954, 1.781594226436227,
      1.7811971288497266, 1.7807137870143022, 1.780027739812316,
      1.779272286572866, 1.778736348639275, 1.7786825985178305,
      1.778657197334175, 1.7786124930508054, 1.778577506306124,
      1.7785549187126477, 1.778510077803197, 1.7784803172929446,
      1.7784291736312017, 1.778384664712906, 1.7782265283866212,
      1.7780984806168219, 1.7779673394163145, 1.777886879904401,
      1.7777971632549558, 1.7777042903546452, 1.7776641221604352,
      1.777605846488808, 1.777566614954955, 1.7775202066209201,
      1.777502970847264, 1.7774853995752329, 1.7774660843887693,
      1.7774561584474136, 1.7774506589155015, 1.7774473055340334,
      1.7774452264343459, 1.7774450922987988, 1.7774445557565086,
      1.7774444216209107, 1.7774441533496848, 1.7773124272866665,
      1.7772943846166407, 1.7772943846166407, 1.7772920370438774
    ],
    [
      12.89665282834289, 12.89665282834289, 12.676043670242022,
      7.409688030888202, 4.715825873786584, 4.715825873786584,
      4.715825873786584, 4.715825873786584, 4.715825873786584,
      4.715825873786584, 4.677657105637907, 4.677657105637907,
      4.677657105637907, 4.601551101230045, 4.423398244152022,
      4.360631399370035, 4.2621407723845826, 4.1757093089716175,
      4.096350157150308, 4.088035030520972, 4.0477456588604035,
      4.0056012989759004, 3.7158364815679747, 3.7158364815679747,
      3.709713768212506, 3.709713768212506, 3.659504412049408,
      3.5793803982022054, 3.5793803982022054, 3.5793803982022054,
      3.5793803982022054, 3.5793803982022054, 3.461420787539158,
      3.461420787539158, 3.461420787539158, 3.461420787539158,
      3.461420787539158, 3.461420787539158, 3.461420787539158,
      3.4206323326864467, 3.4206323326864467, 3.4206323326864467,
      3.4206323326864467, 3.4206323326864467, 3.4206323326864467,
      3.4206323326864467, 3.4206323326864467, 3.346770873885393,
      3.346770873885393, 3.346770873885393, 3.346770873885393,
      3.346770873885393, 3.346770873885393, 3.346770873885393,
      3.346770873885393, 3.346770873885393, 3.303952254802445,
      3.303952254802445, 3.303952254802445, 3.303952254802445,
      3.303952254802445, 3.303952254802445, 3.303952254802445,
      3.299936039622675, 3.299936039622675, 3.230307560027845,
      3.1778526166922796, 3.1778526166922796, 3.174759929321536,
      2.9840948962035942, 2.957770352232061, 2.9551026519140766,
      2.9551026519140766, 2.9551026519140766, 2.9551026519140766,
      2.9551026519140766, 2.9551026519140766, 2.928227826473779,
      2.8644366047589718, 2.8158868530311167, 2.8158868530311167,
      2.6650461299546726, 2.6546158195459366, 2.6546158195459366,
      2.6546158195459366, 2.6382633460524327, 2.6382633460524327,
      2.6382633460524327, 2.6382633460524327, 2.5967389086009667,
      2.5967389086009667, 2.551858905084676, 2.551858905084676,
      2.5499859865588927, 2.5499859865588927, 2.4683294783138625,
      2.426071665605543, 2.426071665605543, 2.426071665605543,
      2.4248166831031317, 2.4162959658557135, 2.4162959658557135,
      2.410955509852785, 2.401049654623937, 2.401049654623937,
      2.384905886762536, 2.3735029622154484, 2.36658190544108,
      2.3497277893516757, 2.348766502334579, 2.340173764909239,
      2.325260012454263, 2.3195274386401934, 2.308281323871832,
      2.306887646529084, 2.2990559713777277, 2.296684828171069,
      2.2903789601499165, 2.286136358324354, 2.2748377312439696,
      2.265083090329671, 2.24659524377703, 2.2155316073557016,
      2.2046080663525673, 2.1976543709929643, 2.191519287240346,
      2.1757941802101204, 2.1650669232039697, 2.1611692181609397,
      2.148790476153153, 2.1443273450847977, 2.13843719727702,
      2.1293111713540425, 2.1234503312667075, 2.1229827506199697,
      2.122943444000466, 2.119023839307896, 2.1152720214649654,
      2.114333928876674, 2.1138767383553176, 2.1125842512135087,
      2.1105137894610806, 2.1093262843405274, 2.107713624347369,
      2.1061501046327704, 2.1049804121179823, 2.1041154634899457,
      2.1036765657733105, 2.1035067842345554, 2.1033801758633857,
      2.1033142050081377, 2.103261608204649, 2.103197107311768,
      2.103166159783958, 2.1030768288343, 2.1030331822569583,
      2.1029243452872843, 2.1028562059422593, 2.1027772930597677,
      2.102680802163308, 2.102587255057591, 2.102482817553549,
      2.1023801893282137, 2.102298536774887, 2.10219419834141,
      2.102123313299295, 2.1020533332410465, 2.102023503107705,
      2.10198323742746, 2.101948075216651, 2.1019155212906577,
      2.1019007754439816, 2.1018999814339177, 2.101899300853624,
      2.101898279982771, 2.1018958979488516, 2.1018914741644106,
      2.1018879578162903, 2.1018853489090445, 2.1018829668604706,
      2.1018795639292533, 2.1018744595220973, 2.1018706028506915,
      2.1018662924448637, 2.101862208894347, 2.1018577850390003,
      2.10185472236446, 2.101850865656839, 2.10184678207635, 2.10184474028313,
      2.101842131322241, 2.101839068624891, 2.101836232790032,
      2.1018341909865645, 2.1018324894821596, 2.10183067454261,
      2.1018291999030714, 2.1018277252624986, 2.1018269312248385,
      2.1018263640548973
    ],
    [
      25.899609937639504, 15.269623684646033, 11.492411224241426,
      8.311304909978976, 6.341072607433552, 5.670081325263988,
      5.670081325263988, 5.48568266578485, 5.48568266578485, 5.16791357355513,
      4.267454767953986, 4.267454767953986, 4.267454767953986,
      4.267454767953986, 4.267454767953986, 4.209542179540208,
      4.133372508652963, 3.9719105548602864, 3.9719105548602864,
      3.9719105548602864, 3.9719105548602864, 3.9719105548602864,
      3.9719105548602864, 3.942566291672646, 3.929669177276183,
      3.929669177276183, 3.929669177276183, 3.882335978996227,
      3.882335978996227, 3.882335978996227, 3.7589773169114995,
      3.6401091770944167, 3.6401091770944167, 3.6401091770944167,
      3.6401091770944167, 3.6401091770944167, 3.6401091770944167,
      3.6401091770944167, 3.6401091770944167, 3.6401091770944167,
      3.5703863557818534, 3.5703863557818534, 3.5703863557818534,
      3.5703863557818534, 3.5489815661482873, 3.5489815661482873,
      3.529422928755064, 3.5080419520584902, 3.4463994740035027,
      3.4463994740035027, 3.4463994740035027, 3.444395328157867,
      3.444395328157867, 3.416122129512872, 3.416122129512872,
      3.3601284867651713, 3.3601284867651713, 3.3601284867651713,
      3.3527047582760687, 3.318132613922943, 3.318132613922943,
      3.318132613922943, 3.318132613922943, 3.1407358330295745,
      3.1407358330295745, 3.1407358330295745, 3.1134390031197756,
      3.1134390031197756, 3.1104895353032385, 3.021396786111274,
      3.021396786111274, 2.9969595760945174, 2.9969595760945174,
      2.9679776441858046, 2.9679776441858046, 2.961924365812116,
      2.961924365812116, 2.9246811065294174, 2.9246811065294174,
      2.9246811065294174, 2.9092911426493147, 2.8531501426299246,
      2.8296022719339877, 2.8249213688802817, 2.7510992800770264,
      2.7510992800770264, 2.7510992800770264, 2.7467122798977797,
      2.7333684321995486, 2.7333684321995486, 2.7333684321995486,
      2.7333684321995486, 2.7333684321995486, 2.7333684321995486,
      2.7323365378806823, 2.7323365378806823, 2.7323365378806823,
      2.732280779366151, 2.732280779366151, 2.730278303192647,
      2.729029023482664, 2.72037781840198, 2.72037781840198, 2.719864978384197,
      2.719864978384197, 2.719864978384197, 2.719864978384197,
      2.7193217060089605, 2.7145859849809026, 2.7112299956467054,
      2.7059639372075477, 2.702826246389169, 2.6891615411051335,
      2.671001626205949, 2.657356749699242, 2.6459437870389313,
      2.6340397088570424, 2.614176461425695, 2.606439732659586,
      2.59771673375896, 2.5926102121703054, 2.5810260518535415,
      2.5730133244406304, 2.5680975834972193, 2.5582728992825157,
      2.5556607040482326, 2.5467755819001776, 2.5460756135606544,
      2.5400222607635863, 2.536698963780097, 2.5313569034560417,
      2.5271286555977635, 2.526321699737863, 2.5246104062606687,
      2.524175577316937, 2.516535529031564, 2.514556657912494,
      2.5139012087619017, 2.5133709968288, 2.512294293992825,
      2.5106799883206268, 2.509613436229612, 2.5078523341547716,
      2.50611377831024, 2.504170467820247, 2.502570737892685,
      2.5010376684074003, 2.4999373428122276, 2.4987123034077805,
      2.4973902432110977, 2.495398005081728, 2.494552016776619,
      2.494482341111271, 2.494304176649888, 2.4940209416028005,
      2.492895522038834, 2.492201658585369, 2.491485496832465,
      2.4912672107521208, 2.4910900605535757, 2.491014353952357,
      2.4909005504466806, 2.49079813241786, 2.4907354351913162,
      2.490600367559487, 2.4905044469052715, 2.490379036086211,
      2.4901868868021073, 2.490015117492132, 2.489850326543764,
      2.4896925153426817, 2.4895801836789264, 2.4895008876880933,
      2.4894395943702983, 2.489405690855661, 2.4893722657522193,
      2.4893500459508773, 2.4893408514923077, 2.4893357753704226,
      2.4893294541475663, 2.4893214089316253, 2.489312118590392,
      2.48930397754122, 2.4892967942404285, 2.489290472918585,
      2.489285779805621, 2.489281661352262, 2.489279937346507,
      2.489279554233955, 2.489279554233955, 2.489279458455808,
      2.489279458455808, 2.489279458455808, 2.489279458455808,
      2.4892793626776566, 2.4892793626776566, 2.4892793626776566,
      2.4892793626776566, 2.4892793626776566, 2.4892793626776566
    ],
    [
      13.413853763118201, 10.255894896446293, 5.5857213545375775,
      5.5857213545375775, 5.5857213545375775, 5.5857213545375775,
      5.516608736746309, 4.635422998774057, 4.635422998774057,
      4.635422998774057, 4.635422998774057, 3.8627678787521815,
      3.8627678787521815, 3.6318394824280227, 3.6318394824280227,
      3.6318394824280227, 3.568871806349145, 3.448302202288556,
      3.448302202288556, 3.448302202288556, 3.103650521671044,
      3.103650521671044, 3.103650521671044, 3.023289403319362,
      3.023289403319362, 3.023289403319362, 3.023289403319362,
      3.023289403319362, 3.023289403319362, 3.0006403239676693,
      3.0006403239676693, 2.9948345855733485, 2.9948345855733485,
      2.9948345855733485, 2.935657329092996, 2.935657329092996,
      2.935657329092996, 2.935657329092996, 2.935657329092996,
      2.8692732456372787, 2.8692732456372787, 2.765690603394095,
      2.765690603394095, 2.7595427275299573, 2.7595427275299573,
      2.7595427275299573, 2.7595427275299573, 2.7595427275299573,
      2.7595427275299573, 2.7595427275299573, 2.7595427275299573,
      2.7595427275299573, 2.75146843978525, 2.75146843978525, 2.75146843978525,
      2.75146843978525, 2.7486846552459188, 2.7486846552459188,
      2.7486846552459188, 2.7486846552459188, 2.7486846552459188,
      2.7486846552459188, 2.7486846552459188, 2.7486846552459188,
      2.719887418801258, 2.6790967462491793, 2.6790967462491793,
      2.637158618546905, 2.637158618546905, 2.637158618546905,
      2.637158618546905, 2.637158618546905, 2.6265587492943827,
      2.6265587492943827, 2.6265587492943827, 2.6265587492943827,
      2.6253795349404494, 2.6253795349404494, 2.6253795349404494,
      2.6253795349404494, 2.6253795349404494, 2.6253795349404494,
      2.6253795349404494, 2.6253795349404494, 2.6253795349404494,
      2.6253795349404494, 2.621972199776372, 2.621972199776372,
      2.621972199776372, 2.621972199776372, 2.603729720016081,
      2.5910424497801072, 2.567874575502132, 2.561856817146989,
      2.557617373938042, 2.547826483922187, 2.547826483922187,
      2.514687784127852, 2.4947096161433646, 2.4947096161433646,
      2.4790861827277406, 2.4790861827277406, 2.4707458733641245,
      2.4561946639411243, 2.438579222596209, 2.4270856363397457,
      2.4265916732930704, 2.41970609945238, 2.41970609945238, 2.41970609945238,
      2.4186893307669486, 2.411015732905708, 2.410689580881598,
      2.4073770038880236, 2.404865708914196, 2.399843282351202,
      2.3913656845066864, 2.388789151448261, 2.3799918067214088,
      2.3762611253248203, 2.3667969837934764, 2.3616162700924823,
      2.3523445729913353, 2.349607244095823, 2.34048600847332,
      2.3373935206023413, 2.325563903842617, 2.323841327187924,
      2.318939419230225, 2.3150565990342824, 2.3101629871815863,
      2.308903449080648, 2.302798360076368, 2.300019168773881,
      2.2964422116640453, 2.294138621325002, 2.2906124348835752,
      2.2888818871392043, 2.288023625045128, 2.2840854320348307,
      2.2812807263957042, 2.2801337450519665, 2.2715392692407677,
      2.2710947242107475, 2.270871211678037, 2.270871211678037,
      2.270539314297596, 2.270458878840974, 2.270234778610399,
      2.270014752411484, 2.269850900433545, 2.269670334459175,
      2.269464961280464, 2.2692758544511444, 2.2690862064990864,
      2.2685872673752856, 2.2683188372879184, 2.268063515454966,
      2.2678798635779978, 2.2677849306467976, 2.267684421462885,
      2.2676196558629504, 2.2675790712812947, 2.267522819429454,
      2.2674858081041243, 2.2674315517739405, 2.267363203773747,
      2.2673038970702453, 2.2672618346381257, 2.2672353349052172,
      2.2672218746048043, 2.267204418158685, 2.2671779177546685,
      2.267146264088353, 2.2671175545669406, 2.267083060595199,
      2.2670542451067086, 2.267036156364767, 2.2670247982437357,
      2.2670247982437357, 2.2670218535364013, 2.2670210121907464,
      2.267018908825242, 2.2670174364682283, 2.267015227930914, 2.2670143865828,
      2.2670124935484015, 2.2670119677052325, 2.2670115470306094,
      2.2670113366932685, 2.2670111263559085, 2.2670104953437105,
      2.2670101798375457, 2.267009969500078, 2.267009759162591,
      2.267009338487558, 2.2670092333187877, 2.267009128150012,
      2.267009022981232, 2.267009022981232
    ],
    [
      6.922862238693454, 6.922862238693454, 6.922862238693454,
      6.922862238693454, 6.922862238693454, 6.922862238693454, 6.33493647446429,
      6.33493647446429, 6.3165297534501255, 6.0859017719987865,
      6.067869973928892, 6.067869973928892, 5.859114252010728,
      5.805567391042291, 5.629013494651939, 5.609551982159695,
      5.422527350941081, 4.88681027748268, 4.88681027748268, 4.88681027748268,
      4.88681027748268, 4.88681027748268, 4.88681027748268, 4.88681027748268,
      4.88681027748268, 4.88681027748268, 4.88681027748268, 4.88681027748268,
      4.88681027748268, 4.88681027748268, 4.809370137807707, 4.809370137807707,
      4.809370137807707, 4.809370137807707, 4.809370137807707,
      4.809370137807707, 4.744055391113712, 4.744055391113712,
      4.701570272898818, 4.701570272898818, 4.701570272898818,
      4.701570272898818, 4.701570272898818, 4.701570272898818,
      4.701570272898818, 4.701570272898818, 4.574660933807199,
      4.505953347524623, 4.505953347524623, 4.47595999026719, 4.47595999026719,
      4.47595999026719, 4.47595999026719, 4.47595999026719, 4.47595999026719,
      4.469370978898651, 4.449535757130118, 4.413073727750591,
      4.413073727750591, 4.410625909170323, 4.331022649085277,
      4.331022649085277, 4.318526769850346, 4.318526769850346,
      4.318526769850346, 4.314823575087498, 4.314823575087498,
      4.314823575087498, 4.314823575087498, 4.2881147383241975,
      4.2881147383241975, 4.2881147383241975, 4.2881147383241975,
      4.2881147383241975, 4.2881147383241975, 4.253517041997422,
      4.253517041997422, 4.253517041997422, 4.253517041997422,
      4.253517041997422, 4.253517041997422, 4.249599662325743,
      4.249599662325743, 4.247519723039249, 4.247519723039249,
      4.247519723039249, 4.229401204538321, 4.214645762915355,
      4.214645762915355, 4.214645762915355, 4.177306564847587,
      4.177306564847587, 4.157100045606861, 4.152919496111925,
      4.145084843888857, 4.145084843888857, 4.144433914753001,
      4.134287695276473, 4.134287695276473, 4.134287695276473,
      4.134287695276473, 4.134287695276473, 4.134287695276473,
      4.1342337171154675, 4.1333577421964804, 4.1333577421964804,
      4.132781347723446, 4.132781347723446, 4.132311265977647,
      4.132311265977647, 4.132311265977647, 4.1314775874575504,
      4.130187731671835, 4.129676249009219, 4.129644842140398,
      4.129567247675738, 4.129567247675738, 4.129567247675738,
      4.129508358046367, 4.128573863527992, 4.1271770396691805,
      4.124714234597331, 4.121270314271547, 4.118679174529159,
      4.107922895768386, 4.106529730293116, 4.105092184725304,
      4.104547137651143, 4.103446832776541, 4.102283232806819,
      4.097529406625312, 4.096364591390833, 4.094739721501334,
      4.094313721027177, 4.08698511642983, 4.086415716891135, 4.07451578083416,
      4.069618912834852, 4.06453430886605, 4.060949411114217, 4.057242880035364,
      4.055476529006096, 4.051267383212113, 4.04819187256901,
      4.0464291124412055, 4.044759661462488, 4.0398541086123485,
      4.034367974568462, 4.021371255314695, 4.01777514177234, 4.009987283814928,
      4.006123861865287, 3.9895207704796296, 3.9793415663596674,
      3.963887036281605, 3.944259775044573, 3.927728304865399,
      3.9051405895289886, 3.894557329126888, 3.8820822199782037,
      3.877267235779779, 3.870955910331323, 3.864199198561973,
      3.8578016031450497, 3.8531671551133284, 3.849542238839366,
      3.8458126085466193, 3.843526570098892, 3.8415292667027274,
      3.8395317936606865, 3.838227188844615, 3.8372548127516684,
      3.835994059656534, 3.8343398113548086, 3.83323596056678,
      3.832462889211085, 3.8313667117788337, 3.8304644228875593,
      3.8295644117019396, 3.8289658226386742, 3.828473258234106,
      3.8280928629869164, 3.8276680809903594, 3.8272569567496095,
      3.82669102806108, 3.8264064123018207, 3.8262410413206616,
      3.826179103250574, 3.826121775370698, 3.8260727967407355,
      3.82602020321351, 3.8259598817850677, 3.82588547573786,
      3.8257957378765144, 3.8257057486296113, 3.825607530802961,
      3.8254694232987605, 3.825337294124318, 3.8252408120139916,
      3.825128371135283
    ],
    [
      17.910074887356085, 15.215028781769627, 9.290642195761711,
      6.76824378941243, 6.2479317867057516, 6.026796584346596,
      5.670228997774872, 5.3783885122108135, 5.319971373344786,
      4.486891196774704, 4.486891196774704, 4.486891196774704,
      4.486891196774704, 4.486891196774704, 4.397104498344377,
      4.397104498344377, 4.397104498344377, 4.397104498344377,
      4.397104498344377, 4.397104498344377, 4.384495050114941,
      4.342219460429113, 4.342219460429113, 4.291900529631366,
      4.125297535656117, 3.993876896664499, 3.993876896664499,
      3.9163867498704144, 3.9163867498704144, 3.9163867498704144,
      3.8690512741686427, 3.8690512741686427, 3.8154549325694127,
      3.773355360696973, 3.773355360696973, 3.773355360696973,
      3.7521915389828973, 3.7308262518897273, 3.7308262518897273,
      3.7308262518897273, 3.7253191971188673, 3.7253191971188673,
      3.7253191971188673, 3.7165771034522828, 3.7165771034522828,
      3.704077232033525, 3.704077232033525, 3.704077232033525,
      3.630519479619209, 3.630519479619209, 3.610583214606356,
      3.610583214606356, 3.5944656322967807, 3.548085682476238,
      3.5266384294048874, 3.5266384294048874, 3.5266384294048874,
      3.5266384294048874, 3.5266384294048874, 3.5266384294048874,
      3.5266384294048874, 3.5266384294048874, 3.5266384294048874,
      3.5266384294048874, 3.5266384294048874, 3.5140662234410853,
      3.4454219740171923, 3.393069041239173, 3.393069041239173,
      3.393069041239173, 3.393069041239173, 3.39032107630343, 3.39032107630343,
      3.39032107630343, 3.39032107630343, 3.3820519418275112,
      3.3551477138787495, 3.3551477138787495, 3.3551477138787495,
      3.352020161288134, 3.352020161288134, 3.352020161288134,
      3.352020161288134, 3.319060540622068, 3.319060540622068,
      3.319060540622068, 3.319060540622068, 3.319060540622068,
      3.319060540622068, 3.3175649247647434, 3.3175649247647434,
      3.2989394246506936, 3.294329777166381, 3.2625155452197148,
      3.26227510926804, 3.2492942043677866, 3.2492942043677866,
      3.2492942043677866, 3.2492942043677866, 3.2492942043677866,
      3.2480062091091546, 3.2439740877163157, 3.2196846503091763,
      3.194049762909065, 3.1893717935894745, 3.188620725588547,
      3.1757201391817866, 3.1757201391817866, 3.164858418894202,
      3.1618539142678457, 3.143730336425442, 3.135064816086266,
      3.1174333136063574, 3.0548752827012247, 3.0298394136081566,
      2.9946213825852213, 2.992447087354708, 2.9815463896435004,
      2.968908365944624, 2.962267735385915, 2.947493901396081,
      2.9220687067621416, 2.9123273086104224, 2.900691798336312,
      2.8810387920825318, 2.8614552752785483, 2.8614552752785483,
      2.8597965450879324, 2.85273731016854, 2.849969455488391,
      2.8461355746073322, 2.8438016446632584, 2.8417290853168846,
      2.8376328626271445, 2.83652088900896, 2.8332609466580925,
      2.831098310773342, 2.8293842020426556, 2.8260648189111404,
      2.8203281391587254, 2.8171417080272496, 2.8166196533282397,
      2.813882784529811, 2.8124717710985685, 2.810117941991117,
      2.805716323233035, 2.795406702031163, 2.791246600834459,
      2.7904239184819977, 2.7892691057547006, 2.7889227311190585,
      2.788303645998771, 2.7879725444870287, 2.7875963305605316,
      2.7872067215940275, 2.7866354247293357, 2.7855879996043993,
      2.785191689542671, 2.7845281933429016, 2.783964396983531,
      2.782474205535026, 2.781723153660925, 2.7794941706808154,
      2.7774738007690982, 2.7758445073313878, 2.7748293540654623,
      2.7740362676162498, 2.7738673776938985, 2.77348314704403,
      2.7731112436018264, 2.772843934062286, 2.772665512744504,
      2.772383282666652, 2.7721292338280676, 2.771859421197061,
      2.7715039027401804, 2.771291498915343, 2.7710735723612103,
      2.77089150924607, 2.7707132203496205, 2.770603246863755,
      2.7705517006679767, 2.7705049726534177, 2.770462804891954,
      2.7704217552505126, 2.7703585014676446, 2.7703087580225803,
      2.770249288475731, 2.7702087520616168, 2.7701838791062334,
      2.770164169927629, 2.770150227105238, 2.770139985110748,
      2.770136972752221, 2.770136456347573, 2.770124062607144,
      2.7700906680861053, 2.770043846224038, 2.770039112352019,
      2.770038940211066
    ],
    [
      8.495392392028236, 8.495392392028236, 8.495392392028236,
      6.705026068014494, 6.657619568241316, 6.458734840299971,
      5.888135793902974, 4.933403150390926, 4.5725123661931475,
      4.5725123661931475, 4.521433120997298, 4.362925843711374,
      4.307994091812659, 3.974880499812915, 3.974880499812915,
      3.6710419704165154, 3.6710419704165154, 3.62307556634529,
      3.62307556634529, 3.5923481736457283, 3.5923481736457283,
      3.241251688646729, 3.241251688646729, 3.241251688646729,
      3.241251688646729, 3.1249697874516085, 3.1249697874516085,
      3.1249697874516085, 3.0909028486708983, 3.0338980522856396,
      3.0338980522856396, 3.0338980522856396, 2.838035459032116,
      2.782735877719789, 2.6316858252354822, 2.6316858252354822,
      2.6316858252354822, 2.6316858252354822, 2.606415949599265,
      2.606415949599265, 2.606415949599265, 2.603873935777074,
      2.603873935777074, 2.603873935777074, 2.547248578903007,
      2.547248578903007, 2.547248578903007, 2.547248578903007,
      2.547248578903007, 2.547248578903007, 2.547248578903007,
      2.547248578903007, 2.5332025602953303, 2.5332025602953303,
      2.511673376643536, 2.4700830457989285, 2.448791174549748,
      2.448791174549748, 2.448791174549748, 2.448791174549748,
      2.448791174549748, 2.448791174549748, 2.448791174549748,
      2.448791174549748, 2.448791174549748, 2.3893794386550824,
      2.3893794386550824, 2.3893794386550824, 2.3893794386550824,
      2.3893794386550824, 2.3893794386550824, 2.3893794386550824,
      2.3893794386550824, 2.3893794386550824, 2.3893794386550824,
      2.3893794386550824, 2.3893794386550824, 2.3632883119083536,
      2.3632883119083536, 2.3632883119083536, 2.351859647410309,
      2.351859647410309, 2.3470081316982196, 2.3470081316982196,
      2.32133764361369, 2.32133764361369, 2.32133764361369, 2.3003831917371733,
      2.283620151780858, 2.2561439763992084, 2.2561439763992084,
      2.2561439763992084, 2.2561439763992084, 2.2561439763992084,
      2.2228337704742764, 2.2228337704742764, 2.186313307267044,
      2.0989371425672774, 2.0725840648356213, 2.054717901316796,
      2.0471443989059304, 2.004296813144062, 2.004296813144062,
      1.997684389944824, 1.9734760054141303, 1.9729248468322784,
      1.9717109454748922, 1.9659486852839154, 1.9659486852839154,
      1.959809058386521, 1.951241584578847, 1.9409332620270132,
      1.9233654414669727, 1.913281838170464, 1.8947015115583803,
      1.8947015115583803, 1.8876812298402856, 1.8825183812798012,
      1.8705924682643387, 1.8564906468442195, 1.8515300506452448,
      1.847926114075031, 1.840046865343257, 1.8304713263434507,
      1.8242063991610469, 1.8174123951237884, 1.8147995929050809,
      1.808467456865482, 1.7936711815720094, 1.7850199507552056,
      1.7788342608333831, 1.7737022571980143, 1.7645516297766237,
      1.7488396067154013, 1.7450290651278189, 1.7412405819169217,
      1.7400549593828851, 1.7375906611878322, 1.7351614054157147,
      1.732308539948567, 1.7298405800942738, 1.728311955581241,
      1.7264548565894884, 1.7243875466720218, 1.7224684286338547,
      1.720316017417534, 1.718981501854235, 1.7177477602099498,
      1.716685424936761, 1.716454099562036, 1.7164450014694494,
      1.7163530455214415, 1.7162112820252584, 1.7161407779354796,
      1.7160099730212948, 1.7158561620294441, 1.7157432612670738,
      1.7156715567408993, 1.7155966528824511, 1.7155123647601669,
      1.7154363420772811, 1.7144636632317742, 1.7144395356194881,
      1.7144071331621624, 1.7143715314729198, 1.7143330780366346,
      1.7142951105064648, 1.7142651392065287, 1.714232107584532,
      1.714193372850667, 1.7141722318008479, 1.714157488546, 1.7141469873767785,
      1.7141381552177584, 1.714131339819848, 1.7141245243948398,
      1.714117708942733, 1.7141108239176814, 1.7141040084111,
      1.7140994183607847, 1.7140974710629981, 1.7140947587516802,
      1.7140900295832193, 1.7140855785892195, 1.7140789020765483,
      1.7140754247158991, 1.7140733382961235, 1.7140731296540064,
      1.7140716691584745, 1.7140698609241871, 1.714068956806328,
      1.7140678440452315, 1.7140664530928449, 1.7140657576162284,
      1.7140654098778143, 1.7140645057576076, 1.7140640189234524,
      1.7140634625413917, 1.7140629757069403, 1.7140624888723508
    ],
    [
      14.403742176819504, 14.403742176819504, 11.96318382931502,
      8.703834162366409, 7.175172533891661, 6.0432550205908475,
      4.733044730150196, 4.733044730150196, 4.733044730150196,
      4.733044730150196, 4.643495025411935, 4.643495025411935,
      4.400007221909578, 4.400007221909578, 4.381429906353859,
      4.214585799277629, 4.1903182837017985, 4.099559360179072,
      4.099559360179072, 4.099559360179072, 4.099559360179072,
      4.099559360179072, 4.099559360179072, 4.099559360179072,
      4.099559360179072, 4.099559360179072, 4.066431813155121,
      4.066431813155121, 4.066431813155121, 4.066431813155121,
      4.066431813155121, 4.066431813155121, 4.052302075964743,
      4.052302075964743, 4.052302075964743, 4.052302075964743,
      4.034162784966709, 4.034162784966709, 4.034162784966709,
      4.029477224968888, 4.029477224968888, 4.029477224968888,
      4.029477224968888, 3.957450460387766, 3.957450460387766,
      3.957450460387766, 3.909707576226642, 3.908469462243818, 3.83638349065282,
      3.83638349065282, 3.748146107499555, 3.748146107499555, 3.748146107499555,
      3.693499582131831, 3.693499582131831, 3.693499582131831,
      3.693499582131831, 3.693499582131831, 3.693499582131831,
      3.693499582131831, 3.45664777622438, 3.45664777622438, 3.45664777622438,
      3.45664777622438, 3.45664777622438, 3.45664777622438, 3.45664777622438,
      3.45664777622438, 3.45664777622438, 3.4275258405672666, 3.426783833659041,
      3.1348714935393858, 3.1348714935393858, 3.1052920117258505,
      3.1052920117258505, 3.075907726754146, 3.075907726754146,
      3.075907726754146, 3.066222439256009, 2.9993603342297472,
      2.9993603342297472, 2.9993603342297472, 2.9993603342297472,
      2.966197794034059, 2.930097953018333, 2.930097953018333,
      2.913367630897067, 2.864675309987649, 2.8291905540240663,
      2.8291905540240663, 2.8286941545733053, 2.8286941545733053,
      2.8162179743761344, 2.8162179743761344, 2.8153842971323737,
      2.8153842971323737, 2.813508509911683, 2.813508509911683,
      2.7968489150210796, 2.7944692142501926, 2.7920213066042283,
      2.788487051788906, 2.7826932955468338, 2.7629735273265865,
      2.7629735273265865, 2.7608102385935456, 2.7550824622743844,
      2.7435712230371725, 2.7385124076323977, 2.734896539268967,
      2.729292238176119, 2.7281335714758317, 2.726019950161179,
      2.7252410047155387, 2.7236227457292, 2.7225637762272896,
      2.7222412318476366, 2.719096896084774, 2.7096864303535724,
      2.7074300188793257, 2.6967168273158597, 2.6892063135661104,
      2.6829736429029567, 2.6808104539376534, 2.669560551001124,
      2.6522374082660676, 2.6391074430298804, 2.6351419438851122,
      2.6187240417213595, 2.6066533131106975, 2.5957357319892806,
      2.578759132772186, 2.560870140730597, 2.54491447394957,
      2.5387163601200338, 2.5250793406796737, 2.513730206290705,
      2.503556296996867, 2.4944037744462952, 2.4865111757844613,
      2.4752554829063524, 2.46778135973946, 2.460410894332777,
      2.4572920668406133, 2.4538789793173374, 2.4512825625531325,
      2.448045367381507, 2.446342470724372, 2.4450257349512654,
      2.444687541038594, 2.4441554833134753, 2.443550035339469,
      2.4430075803085565, 2.442492726997472, 2.4420024662614597,
      2.441324022052758, 2.4407411203344975, 2.4401050243287967,
      2.4397759204906113, 2.4394048437100624, 2.4392237314895824,
      2.439035372244139, 2.438832725635186, 2.438652646356947,
      2.4384397015823813, 2.4383347866899703, 2.438242872450099,
      2.4381482167178783, 2.4377930293866164, 2.4376163943939706,
      2.4373744051927817, 2.4371290658264475, 2.4368508281423717,
      2.436572460835728, 2.436375970142828, 2.436221251927313,
      2.436081497996397, 2.4360731790572148, 2.4360720046164532,
      2.436065740922831, 2.4360492007794434, 2.436034128598325,
      2.4360272775760796, 2.436019643557167, 2.436016903134286,
      2.436016903134286, 2.436016903134286, 2.4360168052619833,
      2.436016609517366, 2.436016609517366, 2.436016609517366,
      2.436016511645051, 2.436016511645051, 2.436016413772733,
      2.436016413772733, 2.436016413772733, 2.436016413772733,
      2.436016413772733, 2.436016413772733, 2.436016413772733
    ]
  ]
}
